{"learner":{"attributes":{},"feature_names":["vintage_days","kyb_score","monthly_txn_volume_inr","monthly_txn_count","avg_ticket_size_inr","txn_velocity","dispute_rate","chargeback_count_90d","refund_rate","settlement_delay_days","rbi_flags_count","aml_alerts_30d","days_since_last_txn","active_devices","p2p_ratio","city_tier","gst_registered","pan_verified","log_monthly_txn_volume_inr","log_monthly_txn_count","log_avg_ticket_size_inr","log_chargeback_count_90d","log_active_devices","log_vintage_days","chargebacks_per_1k_txn","dispute_x_velocity","aml_per_log_volume","new_merchant_flag","prohibited_mcc_flag","kyb_below_threshold","compliance_index","vol_z_lob","disp_z_lob","te_mcc","te_lob","te_business_type","te_state"],"feature_types":["float","float","float","float","float","float","float","float","float","float","float","float","float","float","float","float","float","float","float","float","float","float","float","float","float","float","float","int","int","int","float","float","float","float","float","float","float"],"gradient_booster":{"model":{"gbtree_model_param":{"num_parallel_tree":"1","num_trees":"350"},"iteration_indptr":[0,1,2,3,4,5,6,7,8,9,10,11,12,13,14,15,16,17,18,19,20,21,22,23,24,25,26,27,28,29,30,31,32,33,34,35,36,37,38,39,40,41,42,43,44,45,46,47,48,49,50,51,52,53,54,55,56,57,58,59,60,61,62,63,64,65,66,67,68,69,70,71,72,73,74,75,76,77,78,79,80,81,82,83,84,85,86,87,88,89,90,91,92,93,94,95,96,97,98,99,100,101,102,103,104,105,106,107,108,109,110,111,112,113,114,115,116,117,118,119,120,121,122,123,124,125,126,127,128,129,130,131,132,133,134,135,136,137,138,139,140,141,142,143,144,145,146,147,148,149,150,151,152,153,154,155,156,157,158,159,160,161,162,163,164,165,166,167,168,169,170,171,172,173,174,175,176,177,178,179,180,181,182,183,184,185,186,187,188,189,190,191,192,193,194,195,196,197,198,199,200,201,202,203,204,205,206,207,208,209,210,211,212,213,214,215,216,217,218,219,220,221,222,223,224,225,226,227,228,229,230,231,232,233,234,235,236,237,238,239,240,241,242,243,244,245,246,247,248,249,250,251,252,253,254,255,256,257,258,259,260,261,262,263,264,265,266,267,268,269,270,271,272,273,274,275,276,277,278,279,280,281,282,283,284,285,286,287,288,289,290,291,292,293,294,295,296,297,298,299,300,301,302,303,304,305,306,307,308,309,310,311,312,313,314,315,316,317,318,319,320,321,322,323,324,325,326,327,328,329,330,331,332,333,334,335,336,337,338,339,340,341,342,343,344,345,346,347,348,349,350],"tree_info":[0,0,0,0,0,0,0,0,0,0,0,0,0,0,0,0,0,0,0,0,0,0,0,0,0,0,0,0,0,0,0,0,0,0,0,0,0,0,0,0,0,0,0,0,0,0,0,0,0,0,0,0,0,0,0,0,0,0,0,0,0,0,0,0,0,0,0,0,0,0,0,0,0,0,0,0,0,0,0,0,0,0,0,0,0,0,0,0,0,0,0,0,0,0,0,0,0,0,0,0,0,0,0,0,0,0,0,0,0,0,0,0,0,0,0,0,0,0,0,0,0,0,0,0,0,0,0,0,0,0,0,0,0,0,0,0,0,0,0,0,0,0,0,0,0,0,0,0,0,0,0,0,0,0,0,0,0,0,0,0,0,0,0,0,0,0,0,0,0,0,0,0,0,0,0,0,0,0,0,0,0,0,0,0,0,0,0,0,0,0,0,0,0,0,0,0,0,0,0,0,0,0,0,0,0,0,0,0,0,0,0,0,0,0,0,0,0,0,0,0,0,0,0,0,0,0,0,0,0,0,0,0,0,0,0,0,0,0,0,0,0,0,0,0,0,0,0,0,0,0,0,0,0,0,0,0,0,0,0,0,0,0,0,0,0,0,0,0,0,0,0,0,0,0,0,0,0,0,0,0,0,0,0,0,0,0,0,0,0,0,0,0,0,0,0,0,0,0,0,0,0,0,0,0,0,0,0,0,0,0,0,0,0,0,0,0,0,0,0,0,0,0,0,0,0,0,0,0,0,0,0,0,0,0,0,0,0,0,0,0,0,0,0,0,0,0,0,0,0,0],"trees":[{"base_weights":[-1.1740293E-2,5.7202533E-2,-6.275476E-1,8.874873E-2,-1.384263E0,7.6114196E-1,-6.802811E-1,2.0165434E-1,-1.58174E-1,-4.9856904E-1,-1.2890618E-1,5.8767176E-3,8.566851E-2,-5.579004E-1,-1.3645694E0,8.8599324E-2,4.478275E-1,3.81696E-1,-2.5559026E-1,3.936E-2,-1.01818174E-1,-8.515497E-1,-2.7974105E-1,-1.6128064E0,1.8928085E-2,1.8820342E-2,-6.623971E-3,-7.017269E-2,3.9017215E-2,-1.2994614E-2,6.8095475E-2,-2.4371836E-2,4.4579566E-2,-1.8620076E-2,-8.4765844E-2,-4.1371774E-2,3.5476036E-2,-1.3935484E-1,-4.1327648E-2],"categories":[],"categories_nodes":[],"categories_segments":[],"categories_sizes":[],"default_left":[0,0,0,0,0,0,0,0,0,0,0,0,0,0,0,0,0,0,0,0,0,0,0,0,0,0,0,0,0,0,0,0,0,0,0,0,0,0,0],"id":0,"left_children":[1,3,5,7,9,11,13,15,17,19,-1,-1,-1,21,23,25,27,29,31,-1,-1,33,35,37,-1,-1,-1,-1,-1,-1,-1,-1,-1,-1,-1,-1,-1,-1,-1],"loss_changes":[3.177611E1,3.0737656E1,6.036104E0,1.8425802E1,2.1084614E0,6.090188E-1,5.3625984E0,1.2573223E1,1.1014782E1,4.002286E0,0E0,0E0,0E0,4.966858E0,4.516279E0,7.857373E0,7.952738E0,8.347033E0,7.205867E0,0E0,0E0,3.6807365E0,6.103605E0,3.930912E-1,0E0,0E0,0E0,0E0,0E0,0E0,0E0,0E0,0E0,0E0,0E0,0E0,0E0,0E0,0E0],"parents":[2147483647,0,0,1,1,2,2,3,3,4,4,5,5,6,6,7,7,8,8,9,9,13,13,14,14,15,15,16,16,17,17,18,18,21,21,22,22,23,23],"right_children":[2,4,6,8,10,12,14,16,18,20,-1,-1,-1,22,24,26,28,30,32,-1,-1,34,36,38,-1,-1,-1,-1,-1,-1,-1,-1,-1,-1,-1,-1,-1,-1,-1],"split_conditions":[1.28433E3,3.664E3,3.98047E3,3E0,1.5E0,8.2E1,3.01294E3,5E0,7.4E1,1.455E-1,-1.2890618E-1,5.8767176E-3,8.566851E-2,1.61003E3,3.195E-1,4.984814E4,3.79E-3,2.171E-2,1.3E1,3.936E-2,-1.01818174E-1,1.5E0,8.572E-1,1.3886544E-1,1.8928085E-2,1.8820342E-2,-6.623971E-3,-7.017269E-2,3.9017215E-2,-1.2994614E-2,6.8095475E-2,-2.4371836E-2,4.4579566E-2,-1.8620076E-2,-8.4765844E-2,-4.1371774E-2,3.5476036E-2,-1.3935484E-1,-4.1327648E-2],"split_indices":[4,3,2,13,30,0,4,12,0,14,0,0,0,4,14,2,8,8,12,0,0,30,1,35,0,0,0,0,0,0,0,0,0,0,0,0,0,0,0],"split_type":[0,0,0,0,0,0,0,0,0,0,0,0,0,0,0,0,0,0,0,0,0,0,0,0,0,0,0,0,0,0,0,0,0,0,0,0,0,0,0],"sum_hessian":[7.466114E2,6.72256E2,7.435544E1,6.587772E2,1.347878E1,2.2287798E0,7.2126656E1,4.521943E2,2.0658289E2,3.40252E0,1.007626E1,1.07626E0,1.15252E0,6.272414E1,9.40252E0,3.1081323E2,1.4138107E2,3.1132404E1,1.7545049E2,1.65252E0,1.75E0,2.9509726E1,3.3214413E1,8.134173E0,1.2683465E0,1.672962E2,1.4351703E2,3.5183465E0,1.3786273E2,1.4723033E1,1.6409372E1,1.6605371E2,9.396772E0,7.9575596E0,2.1552166E1,2.522016E1,7.994253E0,6.75E0,1.3841733E0],"tree_param":{"num_deleted":"0","num_feature":"37","num_nodes":"39","size_leaf_vector":"1"}},{"base_weights":[8.129913E-3,6.8852715E-2,-5.5373895E-1,9.732861E-2,-1.0797954E0,1.4531943E-1,-6.3822466E-1,2.6789996E-1,-1.7274683E-2,-8.694965E-3,-1.1916927E0,8.5575676E-1,-9.240717E-2,6.171344E-2,-6.821304E-1,-4.4412005E-1,3.1473067E-1,1.7736693E-1,-1.2692425E-1,-4.2057905E-1,-1.3354161E0,1.6264362E-3,1.1286715E0,5.3637523E-2,-7.197082E-1,-5.8239093E-3,-9.649742E-2,-2.3006678E-2,2.8591335E-2,1.9835457E-2,-3.3100367E-2,-5.7342565E-3,-4.9332812E-2,-8.822591E-2,2.9943846E-2,-1.1358753E-1,-2.3456072E-2,1.8931353E-2,1.1193201E-1,-4.5133546E-2,-9.309092E-2],"categories":[],"categories_nodes":[],"categories_segments":[],"categories_sizes":[],"default_left":[0,0,0,0,0,0,0,0,0,0,0,0,0,0,0,0,0,0,0,0,0,0,0,0,0,0,0,0,0,0,0,0,0,0,0,0,0,0,0,0,0],"id":1,"left_children":[1,3,5,7,9,11,13,15,17,-1,19,21,-1,-1,23,25,27,29,31,33,35,-1,37,-1,39,-1,-1,-1,-1,-1,-1,-1,-1,-1,-1,-1,-1,-1,-1,-1,-1],"loss_changes":[2.5015537E1,2.174428E1,4.3163013E0,1.2642129E1,1.6185436E0,8.864716E0,4.48645E0,8.804777E0,8.295257E0,0E0,1.025877E0,1.3650646E0,0E0,0E0,3.663599E0,4.567721E0,6.383026E0,5.9471946E0,6.679932E0,2.4247885E0,6.056595E-1,0E0,7.716217E-1,0E0,3.5813732E0,0E0,0E0,0E0,0E0,0E0,0E0,0E0,0E0,0E0,0E0,0E0,0E0,0E0,0E0,0E0,0E0],"parents":[2147483647,0,0,1,1,2,2,3,3,4,4,5,5,6,6,7,7,8,8,10,10,11,11,14,14,15,15,16,16,17,17,18,18,19,19,20,20,22,22,24,24],"right_children":[2,4,6,8,10,12,14,16,18,-1,20,22,-1,-1,24,26,28,30,32,34,36,-1,38,-1,40,-1,-1,-1,-1,-1,-1,-1,-1,-1,-1,-1,-1,-1,-1,-1,-1],"split_conditions":[1.29942E3,3.167E3,7.8573E3,1.0986123E0,2.972818E5,1.3862944E0,1.7E1,-1.0249062E0,6.965E-1,-8.694965E-3,3.664E3,4.4756E-4,-9.240717E-2,6.171344E-2,3.034E-1,2.286E-2,2.4E1,7.57E2,1.7917595E0,1.255253E-1,1.528E3,1.6264362E-3,1.424E-1,5.3637523E-2,1.85E0,-5.8239093E-3,-9.649742E-2,-2.3006678E-2,2.8591335E-2,1.9835457E-2,-3.3100367E-2,-5.7342565E-3,-4.9332812E-2,-8.822591E-2,2.9943846E-2,-1.1358753E-1,-2.3456072E-2,1.8931353E-2,1.1193201E-1,-4.5133546E-2,-9.309092E-2],"split_indices":[4,3,2,22,2,22,0,32,1,0,3,25,0,0,1,8,0,3,22,35,0,0,14,0,9,0,0,0,0,0,0,0,0,0,0,0,0,0,0,0,0],"split_type":[0,0,0,0,0,0,0,0,0,0,0,0,0,0,0,0,0,0,0,0,0,0,0,0,0,0,0,0,0,0,0,0,0,0,0,0,0,0,0,0,0],"sum_hessian":[7.310836E2,6.6057117E2,7.05124E1,6.454844E2,1.50868025E1,7.5253677E0,6.2987026E1,2.5886362E2,3.8662076E2,1.7624637E0,1.3324339E1,5.0877624E0,2.4376054E0,1.4020708E0,6.1584957E1,1.5451631E1,2.43412E2,1.3909402E2,2.4752675E2,2.710124E0,1.0614215E1,1.5173767E0,3.5703857E0,1.2094425E0,6.0375515E1,1.1126115E1,4.325516E0,1.5720417E1,2.2769157E2,1.2477697E2,1.4317054E1,2.2346455E2,2.4062193E1,1.2499096E0,1.4602145E0,9.48363E0,1.1305851E0,1.2669445E0,2.3034413E0,4.6392025E1,1.3983488E1],"tree_param":{"num_deleted":"0","num_feature":"37","num_nodes":"41","size_leaf_vector":"1"}},{"base_weights":[1.7607452E-2,8.400525E-2,-5.310776E-1,1.1284875E-1,-8.5985726E-1,-3.9800513E-1,-1.3394625E0,2.0952602E-1,-9.6487746E-2,-1.0895445E0,7.414296E-2,3.026308E-1,-5.433548E-1,-1.4324243E0,-2.2614734E-2,1.0947115E-1,4.1875947E-1,2.7320338E-3,-4.6525508E-1,1.3750327E-1,-1.4132009E0,-3.3288422E-1,6.8845904E-1,-7.445868E-1,-2.1382222E-1,-1.2393228E-1,-2.292378E-2,2.0948533E-2,-5.7258336E-3,2.063188E-2,6.604494E-2,-1.4520126E-2,2.2694096E-2,-6.2313616E-2,-7.5035845E-3,6.717997E-2,-4.022166E-2,-1.2245386E-1,-2.2452977E-2,3.18773E-2,-7.2234824E-2,7.15996E-3,9.1881104E-2,1.24394875E-2,-6.976398E-2,-4.9248483E-2,4.7996763E-2],"categories":[],"categories_nodes":[],"categories_segments":[],"categories_sizes":[],"default_left":[0,0,0,0,0,0,0,0,0,0,0,0,0,0,0,0,0,0,0,0,0,0,0,0,0,0,0,0,0,0,0,0,0,0,0,0,0,0,0,0,0,0,0,0,0,0,0],"id":2,"left_children":[1,3,5,7,9,11,13,15,17,19,-1,21,23,25,-1,27,29,31,33,35,37,39,41,43,45,-1,-1,-1,-1,-1,-1,-1,-1,-1,-1,-1,-1,-1,-1,-1,-1,-1,-1,-1,-1,-1,-1],"loss_changes":[2.7006342E1,1.8093393E1,8.075617E0,1.3019594E1,9.101331E0,7.307046E0,6.647873E-1,9.159462E0,7.4511676E0,7.3155766E0,0E0,3.3414176E0,3.7164173E0,8.618965E-1,0E0,8.262717E0,9.072378E0,8.407321E0,4.957326E0,2.5147202E0,1.4698925E0,2.6398244E0,2.1632977E0,4.252392E0,8.073082E0,0E0,0E0,0E0,0E0,0E0,0E0,0E0,0E0,0E0,0E0,0E0,0E0,0E0,0E0,0E0,0E0,0E0,0E0,0E0,0E0,0E0,0E0],"parents":[2147483647,0,0,1,1,2,2,3,3,4,4,5,5,6,6,7,7,8,8,9,9,11,11,12,12,13,13,15,15,16,16,17,17,18,18,19,19,20,20,21,21,22,22,23,23,24,24],"right_children":[2,4,6,8,10,12,14,16,18,20,-1,22,24,26,-1,28,30,32,34,36,38,40,42,44,46,-1,-1,-1,-1,-1,-1,-1,-1,-1,-1,-1,-1,-1,-1,-1,-1,-1,-1,-1,-1,-1,-1],"split_conditions":[1.26197E3,2.4153993E0,3.01294E3,3E0,6.066E-2,1.340439E4,4.057E-2,5E0,4.042E-2,3.3333333E0,7.414296E-2,-3.918854E-1,1.79451E3,1.9431945E5,-2.2614734E-2,4.984814E4,1.422036E-1,2.171E-2,1.1448052E-1,6.8433E1,1E1,2E0,1.35E2,1E0,8.123E-1,-1.2393228E-1,-2.292378E-2,2.0948533E-2,-5.7258336E-3,2.063188E-2,6.604494E-2,-1.4520126E-2,2.2694096E-2,-6.2313616E-2,-7.5035845E-3,6.717997E-2,-4.022166E-2,-1.2245386E-1,-2.2452977E-2,3.18773E-2,-7.2234824E-2,7.15996E-3,9.1881104E-2,1.24394875E-2,-6.976398E-2,-4.9248483E-2,4.7996763E-2],"split_indices":[4,31,4,13,8,2,6,12,8,24,0,32,4,2,0,2,25,8,36,5,12,13,0,17,1,0,0,0,0,0,0,0,0,0,0,0,0,0,0,0,0,0,0,0,0,0,0],"split_type":[0,0,0,0,0,0,0,0,0,0,0,0,0,0,0,0,0,0,0,0,0,0,0,0,0,0,0,0,0,0,0,0,0,0,0,0,0,0,0,0,0,0,0,0,0,0,0],"sum_hessian":[7.3906665E2,6.600404E2,7.902629E1,6.4132263E2,1.8717741E1,6.913754E1,9.88875E0,4.3871243E2,2.026102E2,1.6931265E1,1.7864747E0,1.16926775E1,5.7444866E1,8.762477E0,1.1262728E0,2.9781927E2,1.4089316E2,1.6043616E2,4.217403E1,3.6538663E0,1.3277399E1,4.468928E0,7.2237496E0,3.4883446E1,2.2561417E1,7.6329765E0,1.1295005E0,1.6146617E2,1.363531E2,1.0213866E2,3.8754505E1,9.710921E1,6.332695E1,2.2271132E1,1.99029E1,1.5940168E0,2.0598495E0,1.1711123E1,1.5662757E0,2.0893643E0,2.3795633E0,3.657056E0,3.5666935E0,4.299882E0,3.0583565E1,1.5267169E1,7.294248E0],"tree_param":{"num_deleted":"0","num_feature":"37","num_nodes":"47","size_leaf_vector":"1"}},{"base_weights":[1.2274108E-4,3.8877882E-2,-8.054615E-1,1.0784334E-1,-3.535941E-1,-9.3500745E-1,3.4387916E-1,1.20168865E-1,-1.1196807E-1,-2.589816E-1,-1.2696434E0,-2.7597493E-1,-1.0912253E0,6.949282E-2,-2.5474815E-2,-4.6053123E-1,1.401579E-1,-3.1573096E-1,6.612565E-1,-1.1565994E-1,-1.7708717E-2,3.251179E-1,-9.894347E-2,-1.1518238E0,9.803965E-3,8.892002E-2,-6.952452E-2,2.1369893E-2,4.225146E-3,-2.9515436E-2,3.7752677E-2,9.047111E-2,-5.3077955E-2,7.334311E-2,-4.883678E-2,-9.9076726E-2,-2.843919E-2],"categories":[],"categories_nodes":[],"categories_segments":[],"categories_sizes":[],"default_left":[0,0,0,0,0,0,0,0,0,0,0,0,0,0,0,0,0,0,0,0,0,0,0,0,0,0,0,0,0,0,0,0,0,0,0,0,0],"id":3,"left_children":[1,3,5,7,9,11,13,15,-1,17,19,21,23,-1,-1,25,27,29,31,-1,-1,33,-1,35,-1,-1,-1,-1,-1,-1,-1,-1,-1,-1,-1,-1,-1],"loss_changes":[2.3015015E1,1.9075342E1,5.359501E0,1.1297327E1,8.802089E0,2.8572063E0,1.7220132E0,6.9716253E0,0E0,5.2611675E0,1.4533787E0,4.570199E0,1.9403152E0,0E0,0E0,1.38324585E1,6.373659E0,4.021776E0,4.4475474E0,0E0,0E0,3.4555283E0,0E0,1.1736946E0,0E0,0E0,0E0,0E0,0E0,0E0,0E0,0E0,0E0,0E0,0E0,0E0,0E0],"parents":[2147483647,0,0,1,1,2,2,3,3,4,4,5,5,6,6,7,7,9,9,10,10,11,11,12,12,15,15,16,16,17,17,18,18,21,21,23,23],"right_children":[2,4,6,8,10,12,14,16,-1,18,20,22,24,-1,-1,26,28,30,32,-1,-1,34,-1,36,-1,-1,-1,-1,-1,-1,-1,-1,-1,-1,-1,-1,-1],"split_conditions":[1.7373618E0,1.011E3,2.82E0,7E0,3.01294E3,2.3978953E0,2E0,1.16116E-3,-1.1196807E-1,1.7115967E0,1.3886544E-1,9.3E2,9.577E-1,6.949282E-2,-2.5474815E-2,6.7E1,2E0,1.172E3,4.33E2,-1.1565994E-1,-1.7708717E-2,9.2544E2,-9.894347E-2,8.1823E2,9.803965E-3,8.892002E-2,-6.952452E-2,2.1369893E-2,4.225146E-3,-2.9515436E-2,3.7752677E-2,9.047111E-2,-5.3077955E-2,7.334311E-2,-4.883678E-2,-9.9076726E-2,-2.843919E-2],"split_indices":[31,4,9,13,4,21,13,25,0,32,35,0,1,0,0,0,13,0,0,0,0,4,0,4,0,0,0,0,0,0,0,0,0,0,0,0,0],"split_type":[0,0,0,0,0,0,0,0,0,0,0,0,0,0,0,0,0,0,0,0,0,0,0,0,0,0,0,0,0,0,0,0,0,0,0,0,0],"sum_hessian":[7.351726E2,7.0233624E2,3.2836334E1,5.979834E2,1.0435285E2,2.9677744E1,3.1585903E0,5.940465E2,3.9369025E0,9.574655E1,8.606296E0,6.216967E0,2.3460775E1,1.5884434E0,1.5701468E0,1.9034586E1,5.750119E2,9.080376E1,4.942796E0,7.043817E0,1.5624785E0,4.231404E0,1.9855633E0,2.2393791E1,1.0669855E0,3.5712855E0,1.5463301E1,2.3351204E2,3.4149988E2,8.555532E1,5.2484345E0,3.7571635E0,1.1856327E0,2.604419E0,1.626985E0,1.9695827E1,2.6979628E0],"tree_param":{"num_deleted":"0","num_feature":"37","num_nodes":"37","size_leaf_vector":"1"}},{"base_weights":[6.8518135E-4,5.390522E-2,-4.8218313E-1,7.606683E-2,-1.0754504E0,6.320182E-2,-5.211853E-1,-1.5196881E-2,2.6968458E-1,-2.0786004E-2,-1.1655406E0,6.1863538E-2,-6.065288E-1,8.9653E-2,-1.8373676E-1,9.385981E-2,5.7569104E-1,-1.2404773E0,-2.0553922E-2,-2.567648E-1,9.839352E-2,-4.8035987E-2,-7.145926E-1,-1.5179119E-2,1.8875977E-2,-4.270929E-2,-7.6772706E-3,-3.4379287E-4,5.810781E-2,6.2272255E-4,5.908326E-2,-3.3236112E-2,-1.1154066E-1,-4.8754487E-2,8.898484E-2,-8.605205E-2,2.8414033E-2,-6.156906E-2,1.1633828E-2],"categories":[],"categories_nodes":[],"categories_segments":[],"categories_sizes":[],"default_left":[0,0,0,0,0,0,0,0,0,0,0,0,0,0,0,0,0,0,0,0,0,0,0,0,0,0,0,0,0,0,0,0,0,0,0,0,0,0,0],"id":4,"left_children":[1,3,5,7,9,-1,11,13,15,-1,17,19,21,23,25,27,29,31,-1,33,-1,35,37,-1,-1,-1,-1,-1,-1,-1,-1,-1,-1,-1,-1,-1,-1,-1,-1],"loss_changes":[1.9027054E1,1.6772892E1,4.058897E0,1.1577894E1,6.4510345E-1,0E0,3.6161957E0,7.899747E0,1.1238397E1,0E0,4.5277786E-1,4.071226E0,3.7575874E0,1.1313238E1,5.216604E0,8.352657E0,7.0593796E0,7.1563625E-1,0E0,4.9050984E0,0E0,5.046779E0,2.5995064E0,0E0,0E0,0E0,0E0,0E0,0E0,0E0,0E0,0E0,0E0,0E0,0E0,0E0,0E0,0E0,0E0],"parents":[2147483647,0,0,1,1,2,2,3,3,4,4,6,6,7,7,8,8,10,10,11,11,12,12,13,13,14,14,15,15,16,16,17,17,19,19,21,21,22,22],"right_children":[2,4,6,8,10,-1,12,14,16,-1,18,20,22,24,26,28,30,32,-1,34,-1,36,38,-1,-1,-1,-1,-1,-1,-1,-1,-1,-1,-1,-1,-1,-1,-1,-1],"split_conditions":[1.29942E3,3.664E3,3.98047E3,5E0,2.681106E5,6.320182E-2,6.9E1,-1.7736277E-1,6E0,-2.0786004E-2,1.528E3,3.068E-1,1.074E-2,9.9863485E-2,2.2624435E0,1.3E1,6.679487E-2,7.0358425E-2,-2.0553922E-2,1.52E0,9.839352E-2,7.17E-2,7.832497E-2,-1.5179119E-2,1.8875977E-2,-4.270929E-2,-7.6772706E-3,-3.4379287E-4,5.810781E-2,6.2272255E-4,5.908326E-2,-3.3236112E-2,-1.1154066E-1,-4.8754487E-2,8.898484E-2,-8.605205E-2,2.8414033E-2,-6.156906E-2,1.1633828E-2],"split_indices":[4,3,2,12,2,0,0,31,7,0,0,14,8,36,24,12,33,33,0,9,0,14,26,0,0,0,0,0,0,0,0,0,0,0,0,0,0,0,0],"split_type":[0,0,0,0,0,0,0,0,0,0,0,0,0,0,0,0,0,0,0,0,0,0,0,0,0,0,0,0,0,0,0,0,0,0,0,0,0,0,0],"sum_hessian":[7.3839075E2,6.658874E2,7.250338E1,6.539867E2,1.1900689E1,1.5838585E0,7.0919525E1,4.451039E2,2.0888277E2,1.5700835E0,1.03306055E1,9.090468E0,6.1829056E1,2.746871E2,1.704168E2,1.3348935E2,7.539342E1,9.206108E0,1.1244975E0,7.755154E0,1.3353143E0,1.0258066E1,5.1570988E1,9.429984E1,1.8038727E2,3.3138905E1,1.3727788E2,1.1641574E2,1.7073618E1,1.7034986E1,5.835843E1,2.0279346E0,7.1781735E0,6.607864E0,1.1472902E0,2.4207904E0,7.8372755E0,4.8568848E1,3.0021434E0],"tree_param":{"num_deleted":"0","num_feature":"37","num_nodes":"39","size_leaf_vector":"1"}},{"base_weights":[-1.2928345E-3,6.533466E-2,-3.482694E-1,9.5057234E-2,-9.6869093E-1,-2.7458313E-1,-1.093608E0,1.0661734E-1,-1.06006294E-1,1.3593075E-1,-1.1340859E0,-8.4641683E-1,-1.7577016E-1,-1.2580143E0,1.3771628E-2,-1.0198221E0,1.2046816E-1,-2.5657061E-2,4.410329E-2,-3.6198956E-1,-1.2551467E0,-4.23055E-3,-1.1039575E0,3.0365273E-1,-3.2331815E-1,-1.1015585E-1,-1.6106885E-2,-1.02212906E-1,-1.4646576E-3,-3.7673286E-3,1.5965236E-2,-4.672151E-2,3.9497289E-4,-3.2892875E-2,-1.10010475E-1,-5.4648392E-2,5.478333E-2,-9.9035785E-2,1.1596816E-2,-2.6926855E-2,4.843077E-2,5.0690457E-2,-3.2513358E-2],"categories":[],"categories_nodes":[],"categories_segments":[],"categories_sizes":[],"default_left":[0,0,0,0,0,0,0,0,0,0,0,0,0,0,0,0,0,0,0,0,0,0,0,0,0,0,0,0,0,0,0,0,0,0,0,0,0,0,0,0,0,0,0],"id":5,"left_children":[1,3,5,7,9,11,13,15,-1,17,19,21,23,25,-1,27,29,-1,-1,31,33,35,37,39,41,-1,-1,-1,-1,-1,-1,-1,-1,-1,-1,-1,-1,-1,-1,-1,-1,-1,-1],"loss_changes":[1.6963001E1,1.9010883E1,6.191375E0,9.979591E0,3.312868E0,6.0046053E0,2.3597507E0,9.411814E0,0E0,7.732385E-1,9.612255E-1,3.418683E0,6.755831E0,8.8342476E-1,0E0,1.8713427E0,7.8160973E0,0E0,0E0,2.84604E-1,7.1931076E-1,2.666289E0,2.2014856E0,4.5821457E0,6.0190406E0,0E0,0E0,0E0,0E0,0E0,0E0,0E0,0E0,0E0,0E0,0E0,0E0,0E0,0E0,0E0,0E0,0E0,0E0],"parents":[2147483647,0,0,1,1,2,2,3,3,4,4,5,5,6,6,7,7,9,9,10,10,11,11,12,12,13,13,15,15,16,16,19,19,20,20,21,21,22,22,23,23,24,24],"right_children":[2,4,6,8,10,12,14,16,-1,18,20,22,24,26,-1,28,30,-1,-1,32,34,36,38,40,42,-1,-1,-1,-1,-1,-1,-1,-1,-1,-1,-1,-1,-1,-1,-1,-1,-1,-1],"split_conditions":[9.6204E2,3.167E3,3.01294E3,7E0,2.972818E5,-9.168158E-1,4.125E-2,4E0,-1.06006294E-1,5.887E-1,2.1881838E0,6.65E-4,4.83465E-3,4.3E1,1.3771628E-2,2.782E-2,2E0,-2.5657061E-2,4.410329E-2,7.057E-1,1E0,1.230718E4,6.809039E0,1.27021E-3,-7.290464E-1,-1.1015585E-1,-1.6106885E-2,-1.02212906E-1,-1.4646576E-3,-3.7673286E-3,1.5965236E-2,-4.672151E-2,3.9497289E-4,-3.2892875E-2,-1.10010475E-1,-5.4648392E-2,5.478333E-2,-9.9035785E-2,1.1596816E-2,-2.6926855E-2,4.843077E-2,5.0690457E-2,-3.2513358E-2],"split_indices":[4,3,4,13,2,32,6,3,0,1,24,25,25,3,0,6,12,0,0,1,16,2,23,25,32,0,0,0,0,0,0,0,0,0,0,0,0,0,0,0,0,0,0],"split_type":[0,0,0,0,0,0,0,0,0,0,0,0,0,0,0,0,0,0,0,0,0,0,0,0,0,0,0,0,0,0,0,0,0,0,0,0,0,0,0,0,0,0,0],"sum_hessian":[7.317674E2,6.145679E2,1.1719949E2,5.9827875E2,1.6289165E1,1.0790054E2,9.298949E0,5.943654E2,3.9132943E0,2.1445472E0,1.4144618E1,1.4783298E1,9.311725E1,8.235385E0,1.0635643E0,6.337401E0,5.88028E2,1.1300483E0,1.014499E0,2.4580312E0,1.1686587E1,3.7000747E0,1.1083222E1,2.1664734E1,7.1452515E1,7.1298037E0,1.1055812E0,4.820608E0,1.5167928E0,1.8869696E2,3.9933105E2,1.1627781E0,1.2952533E0,2.0056152E0,9.680972E0,1.8680878E0,1.831987E0,1.00173025E1,1.0659199E0,6.9026456E0,1.4762088E1,5.1796565E0,6.627286E1],"tree_param":{"num_deleted":"0","num_feature":"37","num_nodes":"43","size_leaf_vector":"1"}},{"base_weights":[-4.1896827E-4,4.9873006E-2,-4.6991304E-1,6.9924906E-2,-8.896888E-1,-3.6571822E-1,-1.0814359E0,1.491918E-1,-1.00949734E-1,-2.2343321E-1,-1.1063848E0,6.978317E-3,-6.0210747E-1,-9.84557E-2,-1.3156628E-2,-3.2028103E-1,1.859814E-1,3.0006495E-1,-1.8026246E-1,5.7081614E-2,-8.4785886E-2,-1.6033515E-2,-1.1936744E0,-3.8441068E-1,4.3289447E-1,-6.7123985E-1,4.69074E-2,3.6407765E-2,-3.978122E-2,3.279779E-2,8.122665E-3,-1.5183654E-2,6.4019985E-2,-7.859788E-3,-4.0107716E-2,-2.7719667E-2,-1.0820904E-1,2.191363E-2,-6.2352106E-2,4.8004556E-2,-5.121266E-2,4.5687914E-2,-5.779863E-2],"categories":[],"categories_nodes":[],"categories_segments":[],"categories_sizes":[],"default_left":[0,0,0,0,0,0,0,0,0,0,0,0,0,0,0,0,0,0,0,0,0,0,0,0,0,0,0,0,0,0,0,0,0,0,0,0,0,0,0,0,0,0,0],"id":6,"left_children":[1,3,5,7,9,11,13,15,17,19,21,23,25,-1,-1,27,29,31,33,-1,-1,-1,35,37,39,41,-1,-1,-1,-1,-1,-1,-1,-1,-1,-1,-1,-1,-1,-1,-1,-1,-1],"loss_changes":[1.7452475E1,1.2640439E1,4.1613064E0,8.881567E0,1.7774582E0,5.52071E0,1.152647E0,7.7899675E0,6.6707544E0,4.4352975E0,5.775862E-1,4.3822074E0,3.5424175E0,0E0,0E0,4.7401E0,7.8212843E0,8.660591E0,4.5409336E0,0E0,0E0,0E0,7.727041E-1,3.778256E0,2.6408556E0,2.7480164E0,0E0,0E0,0E0,0E0,0E0,0E0,0E0,0E0,0E0,0E0,0E0,0E0,0E0,0E0,0E0,0E0,0E0],"parents":[2147483647,0,0,1,1,2,2,3,3,4,4,5,5,6,6,7,7,8,8,9,9,10,10,11,11,12,12,15,15,16,16,17,17,18,18,22,22,23,23,24,24,25,25],"right_children":[2,4,6,8,10,12,14,16,18,20,22,24,26,-1,-1,28,30,32,34,-1,-1,-1,36,38,40,42,-1,-1,-1,-1,-1,-1,-1,-1,-1,-1,-1,-1,-1,-1,-1,-1,-1],"split_conditions":[7.1704426E0,3.664E3,8.0110035E0,3E0,1.5E0,5.845E-3,3.195E-1,1.66E-3,8.2E1,1.455E-1,3.4011974E0,7.4930444E0,9.796E-1,-9.84557E-2,-1.3156628E-2,8.2E1,7.75E-3,-3.171717E-1,6.5296087E0,5.7081614E-2,-8.4785886E-2,-1.6033515E-2,1.1573359E0,9.4E-1,6E0,3.526E-1,4.69074E-2,3.6407765E-2,-3.978122E-2,3.279779E-2,8.122665E-3,-1.5183654E-2,6.4019985E-2,-7.859788E-3,-4.0107716E-2,-2.7719667E-2,-1.0820904E-1,2.191363E-2,-6.2352106E-2,4.8004556E-2,-5.121266E-2,4.5687914E-2,-5.779863E-2],"split_indices":[20,3,20,13,30,25,14,6,0,14,21,20,1,0,0,0,6,32,20,0,0,0,31,9,12,1,0,0,0,0,0,0,0,0,0,0,0,0,0,0,0,0,0],"split_type":[0,0,0,0,0,0,0,0,0,0,0,0,0,0,0,0,0,0,0,0,0,0,0,0,0,0,0,0,0,0,0,0,0,0,0,0,0,0,0,0,0,0,0],"sum_hessian":[7.371501E2,6.666343E2,7.051576E1,6.5361066E2,1.30236225E1,6.1615417E1,8.900347E0,4.4657587E2,2.0703479E2,3.6947625E0,9.328859E0,2.42899E1,3.732552E1,7.3601785E0,1.5401678E0,3.1892265E1,4.1468362E2,3.3726456E1,1.7330833E2,1.811907E0,1.8828554E0,1.1095049E0,8.219355E0,1.2708798E1,1.1581101E1,3.5684917E1,1.6406016E0,5.634742E0,2.6257524E1,1.1248156E2,3.0220206E2,1.7352589E1,1.6373865E1,1.3908705E2,3.4221287E1,1.8007907E0,6.4185643E0,4.880681E0,7.8281174E0,1.0401525E1,1.179577E0,1.011725E0,3.467319E1],"tree_param":{"num_deleted":"0","num_feature":"37","num_nodes":"43","size_leaf_vector":"1"}},{"base_weights":[1.036479E-2,3.88556E-2,-7.3372036E-1,9.7115785E-2,-2.87216E-1,-8.9552563E-1,3.7798062E-2,2.3169425E-1,6.4218557E-3,1.7584328E-1,-4.110209E-1,-1.0795684E0,-2.601508E-1,-5.774994E-2,5.8971E-1,-1.5131801E-1,3.0095652E-1,-2.4516683E-2,6.2285036E-1,1.0354493E0,-6.402432E-2,7.69392E-2,-4.550843E-1,6.9028866E-3,-1.1979749E0,6.007074E-2,-8.190475E-1,9.2598274E-2,-1.4363146E-2,-3.0563133E-2,4.1366562E-2,-4.5443397E-2,2.6683036E-2,1.4899716E-2,-9.173614E-3,-5.868636E-2,6.488233E-2,4.8636044E-3,1.136112E-1,-8.286312E-2,1.481795E-2,-2.8340856E-2,-7.376856E-2,-2.5435474E-2,-1.0553503E-1,-8.412752E-2,-2.2155834E-2],"categories":[],"categories_nodes":[],"categories_segments":[],"categories_sizes":[],"default_left":[0,0,0,0,0,0,0,0,0,0,0,0,0,0,0,0,0,0,0,0,0,0,0,0,0,0,0,0,0,0,0,0,0,0,0,0,0,0,0,0,0,0,0,0,0,0,0],"id":7,"left_children":[1,3,5,7,9,11,13,15,17,19,21,23,25,-1,27,29,31,33,35,37,39,-1,41,-1,43,-1,45,-1,-1,-1,-1,-1,-1,-1,-1,-1,-1,-1,-1,-1,-1,-1,-1,-1,-1,-1,-1],"loss_changes":[1.55876465E1,1.3474339E1,3.4189148E0,7.3372803E0,6.237999E0,2.345028E0,2.7989788E0,6.4664726E0,6.885342E0,4.8889275E0,5.5889196E0,2.4631882E0,4.209421E0,0E0,1.8801262E0,6.0163593E0,6.0024204E0,6.557245E0,4.9989867E0,1.8487043E0,4.849125E0,0E0,3.5905437E0,0E0,1.2431164E0,0E0,2.8547978E-1,0E0,0E0,0E0,0E0,0E0,0E0,0E0,0E0,0E0,0E0,0E0,0E0,0E0,0E0,0E0,0E0,0E0,0E0,0E0,0E0],"parents":[2147483647,0,0,1,1,2,2,3,3,4,4,5,5,6,6,7,7,8,8,9,9,10,10,11,11,12,12,14,14,15,15,16,16,17,17,18,18,19,19,20,20,22,22,24,24,26,26],"right_children":[2,4,6,8,10,12,14,16,18,20,22,24,26,-1,28,30,32,34,36,38,40,-1,42,-1,44,-1,46,-1,-1,-1,-1,-1,-1,-1,-1,-1,-1,-1,-1,-1,-1,-1,-1,-1,-1,-1,-1],"split_conditions":[1.8965795E0,6.919684E0,8E0,2E0,9.7E1,1.255253E-1,2.7474573E0,6.4709306E-2,1.3E1,-4.723917E-1,3.56758E3,1.3E-3,5.7971015E0,-5.774994E-2,2.607E-1,1.2097403E-1,1.0824E-3,1.29E2,9.75989E3,-6.1635435E-1,1.6E1,7.69392E-2,7.736949E0,6.9028866E-3,4.5687794E5,6.007074E-2,9.876543E0,9.2598274E-2,-1.4363146E-2,-3.0563133E-2,4.1366562E-2,-4.5443397E-2,2.6683036E-2,1.4899716E-2,-9.173614E-3,-5.868636E-2,6.488233E-2,4.8636044E-3,1.136112E-1,-8.286312E-2,1.481795E-2,-2.8340856E-2,-7.376856E-2,-2.5435474E-2,-1.0553503E-1,-8.412752E-2,-2.2155834E-2],"split_indices":[31,20,12,13,0,35,31,33,12,31,2,6,24,0,14,36,25,0,2,31,0,0,20,0,2,0,24,0,0,0,0,0,0,0,0,0,0,0,0,0,0,0,0,0,0,0,0],"split_type":[0,0,0,0,0,0,0,0,0,0,0,0,0,0,0,0,0,0,0,0,0,0,0,0,0,0,0,0,0,0,0,0,0,0,0,0,0,0,0,0,0,0,0,0,0,0,0],"sum_hessian":[7.3293585E2,7.068197E2,2.6116146E1,6.0026984E2,1.0654983E2,2.1455666E1,4.6604815E0,2.4104077E2,3.592291E2,2.2389084E1,8.416074E1,1.6094597E1,5.361068E0,1.8315353E0,2.8289459E0,3.6732063E1,2.043087E2,3.4297537E2,1.6253702E1,4.160931E0,1.8228153E1,1.9697089E0,8.219104E1,1.5089041E0,1.4585693E1,1.7862532E0,3.5748143E0,1.3372563E0,1.4916896E0,2.7624834E1,9.107229E0,6.7894273E0,1.9751929E2,1.0243481E2,2.4054057E2,1.6270803E0,1.4626622E1,1.5052525E0,2.6556787E0,3.076791E0,1.5151361E1,6.9043976E1,1.3147062E1,2.204387E0,1.2381307E1,1.843953E0,1.7308614E0],"tree_param":{"num_deleted":"0","num_feature":"37","num_nodes":"47","size_leaf_vector":"1"}},{"base_weights":[1.2261625E-3,4.346434E-2,-3.948391E-1,6.513905E-2,-7.87508E-1,-2.9877704E-1,-9.4933134E-1,3.0722275E-1,-6.154578E-4,-9.082609E-1,4.48103E-2,-5.0319576E-1,-1.987103E-2,-1.0940477E0,1.107433E-3,-1.757474E-1,3.8876286E-1,1.7112452E-1,-6.698013E-2,-1.0265858E0,-4.737666E-4,1.4166638E-1,-7.790267E-1,7.3330396E-1,-3.8454005E-1,-9.701654E-2,-1.8809505E-2,-9.0263315E-2,1.4411348E-2,6.167494E-2,2.1593707E-2,1.9890103E-2,-2.8887188E-2,-2.5542967E-3,-5.4259136E-2,-2.5613258E-2,-9.806964E-2,-5.6378994E-2,3.233274E-2,1.3179366E-2,-7.307263E-2,4.9370206E-3,1.0489499E-1,4.4951113E-3,-5.79064E-2],"categories":[],"categories_nodes":[],"categories_segments":[],"categories_sizes":[],"default_left":[0,0,0,0,0,0,0,0,0,0,0,0,0,0,0,0,0,0,0,0,0,0,0,0,0,0,0,0,0,0,0,0,0,0,0,0,0,0,0,0,0,0,0,0,0],"id":8,"left_children":[1,3,5,7,9,11,13,15,17,19,-1,21,23,25,-1,27,29,31,33,35,-1,37,39,41,43,-1,-1,-1,-1,-1,-1,-1,-1,-1,-1,-1,-1,-1,-1,-1,-1,-1,-1,-1,-1],"loss_changes":[1.2281329E1,1.1999101E1,3.484726E0,1.0305869E1,3.2652912E0,3.5111213E0,1.4072456E0,5.514433E0,5.8256273E0,1.6945143E0,0E0,6.4421997E0,7.7422237E0,6.010866E-1,0E0,7.208357E0,5.179735E0,5.9660873E0,7.8771424E0,1.5890436E0,0E0,2.842241E0,3.3320932E0,3.4915009E0,2.8753912E0,0E0,0E0,0E0,0E0,0E0,0E0,0E0,0E0,0E0,0E0,0E0,0E0,0E0,0E0,0E0,0E0,0E0,0E0,0E0,0E0],"parents":[2147483647,0,0,1,1,2,2,3,3,4,4,5,5,6,6,7,7,8,8,9,9,11,11,12,12,13,13,15,15,16,16,17,17,18,18,19,19,21,21,22,22,23,23,24,24],"right_children":[2,4,6,8,10,12,14,16,18,20,-1,22,24,26,-1,28,30,32,34,36,-1,38,40,42,44,-1,-1,-1,-1,-1,-1,-1,-1,-1,-1,-1,-1,-1,-1,-1,-1,-1,-1,-1,-1],"split_conditions":[1.29942E3,3.167E3,3.01294E3,9.7E1,5.928E-2,1.79451E3,3.195E-1,9.841155E-2,6.643E-1,2.633E-2,4.48103E-2,2E0,2.00907E3,1.3886544E-1,1.107433E-3,4.54E-3,5.52E-3,7.57E2,5E0,1.051E-1,-4.737666E-4,-8.7626016E-1,1.5E-3,9.26E-3,5.68962E-3,-9.701654E-2,-1.8809505E-2,-9.0263315E-2,1.4411348E-2,6.167494E-2,2.1593707E-2,1.9890103E-2,-2.8887188E-2,-2.5542967E-3,-5.4259136E-2,-2.5613258E-2,-9.806964E-2,-5.6378994E-2,3.233274E-2,1.3179366E-2,-7.307263E-2,4.9370206E-3,1.0489499E-1,4.4951113E-3,-5.79064E-2],"split_indices":[4,3,4,0,8,4,14,36,1,6,0,30,4,35,0,6,6,3,13,14,0,32,25,6,25,0,0,0,0,0,0,0,0,0,0,0,0,0,0,0,0,0,0,0,0],"split_type":[0,0,0,0,0,0,0,0,0,0,0,0,0,0,0,0,0,0,0,0,0,0,0,0,0,0,0,0,0,0,0,0,0,0,0,0,0,0,0,0,0,0,0,0,0],"sum_hessian":[7.32105E2,6.6235834E2,6.9746605E1,6.4641907E2,1.5939295E1,6.0759296E1,8.98731E0,1.3729126E2,5.091278E2,1.4927752E1,1.0115428E0,3.4597534E1,2.6161762E1,7.69523E0,1.2920808E0,1.9664013E1,1.1762726E2,1.4146443E2,3.6766336E2,1.3075455E1,1.8522972E0,1.0510815E1,2.4086718E1,8.204856E0,1.7956907E1,6.3992977E0,1.2959322E0,4.7582164E0,1.4905796E1,2.6599792E1,9.1027466E1,1.2394783E2,1.751661E1,3.48719E2,1.8944355E1,3.4505599E0,9.624894E0,2.0892563E0,8.421558E0,2.9740207E0,2.1112698E1,4.3066473E0,3.8982089E0,8.173776E0,9.783131E0],"tree_param":{"num_deleted":"0","num_feature":"37","num_nodes":"45","size_leaf_vector":"1"}},{"base_weights":[3.0645428E-3,1.8798199E-2,-9.041987E-1,1.3122648E-1,-1.3476291E-1,-1.6044272E-2,-1.0173509E0,2.6012959E-2,2.575515E-1,2.4894936E-1,-1.8474853E-1,-2.07766E-2,-1.1530697E0,1.9263129E-1,-1.2780227E-1,1.1624854E0,2.1284458E-1,5.5959105E-1,-5.2356106E-1,-1.5111017E-1,-7.323113E-1,-1.02649726E-1,-1.674531E-2,-9.735468E-3,2.6839055E-2,-4.728773E-2,-2.657966E-3,1.1521517E-1,-3.0125124E-2,7.33634E-3,4.1588705E-2,-3.2640148E-2,6.326872E-2,-5.798299E-2,4.732144E-2,-1.38734365E-2,5.0579414E-2,3.880021E-2,-6.8069786E-2],"categories":[],"categories_nodes":[],"categories_segments":[],"categories_sizes":[],"default_left":[0,0,0,0,0,0,0,0,0,0,0,0,0,0,0,0,0,0,0,0,0,0,0,0,0,0,0,0,0,0,0,0,0,0,0,0,0,0,0],"id":9,"left_children":[1,3,5,7,9,-1,11,13,15,17,19,-1,21,23,25,27,29,31,33,35,37,-1,-1,-1,-1,-1,-1,-1,-1,-1,-1,-1,-1,-1,-1,-1,-1,-1,-1],"loss_changes":[1.0560484E1,1.2569219E1,8.000488E-1,5.5785384E0,5.949344E0,0E0,7.924051E-1,5.9289536E0,7.473419E0,8.907951E0,4.915653E0,0E0,8.010311E-1,5.0245447E0,5.2557364E0,4.2864637E0,6.761462E0,6.160288E0,2.854853E0,4.6243076E0,2.6546202E0,0E0,0E0,0E0,0E0,0E0,0E0,0E0,0E0,0E0,0E0,0E0,0E0,0E0,0E0,0E0,0E0,0E0,0E0],"parents":[2147483647,0,0,1,1,2,2,3,3,4,4,6,6,7,7,8,8,9,9,10,10,12,12,13,13,14,14,15,15,16,16,17,17,18,18,19,19,20,20],"right_children":[2,4,6,8,10,-1,12,14,16,18,20,-1,22,24,26,28,30,32,34,36,38,-1,-1,-1,-1,-1,-1,-1,-1,-1,-1,-1,-1,-1,-1,-1,-1,-1,-1],"split_conditions":[3.664E3,4.8157E2,2.972818E5,-1.7759567E-1,-4.78208E-1,-1.6044272E-2,7.6E-1,3.6126E-2,1.366E-2,1.2097403E-1,5E0,-2.07766E-2,2.525E-2,2E0,4.2E-1,1.1594203E1,4.09E2,1.0824E-3,-4.899897E-1,3.25E0,3E1,-1.02649726E-1,-1.674531E-2,-9.735468E-3,2.6839055E-2,-4.728773E-2,-2.657966E-3,1.1521517E-1,-3.0125124E-2,7.33634E-3,4.1588705E-2,-3.2640148E-2,6.326872E-2,-5.798299E-2,4.732144E-2,-1.38734365E-2,5.0579414E-2,3.880021E-2,-6.8069786E-2],"split_indices":[3,4,2,32,31,0,9,25,6,36,13,0,6,12,9,24,3,25,31,9,0,0,0,0,0,0,0,0,0,0,0,0,0,0,0,0,0,0,0],"split_type":[0,0,0,0,0,0,0,0,0,0,0,0,0,0,0,0,0,0,0,0,0,0,0,0,0,0,0,0,0,0,0,0,0,0,0,0,0,0,0],"sum_hessian":[7.376204E2,7.2600934E2,1.1611091E1,4.19224E2,3.0678534E2,1.992569E0,9.618522E0,2.2938217E2,1.8984183E2,3.4899612E1,2.7188574E2,1.9038651E0,7.7146564E0,1.09987404E2,1.19394775E2,7.760262E0,1.8208156E2,2.5087183E1,9.81243E0,2.5735184E2,1.45338955E1,6.4642677E0,1.2503887E0,3.4414394E1,7.557301E1,1.9351324E1,1.0004345E2,6.6284637E0,1.1317978E0,1.3149539E2,5.058617E1,4.692062E0,2.039512E1,8.60889E0,1.2035408E0,2.5098312E2,6.3687077E0,1.0155976E0,1.3518297E1],"tree_param":{"num_deleted":"0","num_feature":"37","num_nodes":"39","size_leaf_vector":"1"}},{"base_weights":[-9.035658E-4,4.232564E-2,-3.5191596E-1,6.7416936E-2,-5.879859E-1,5.670525E-2,-4.6398163E-1,2.38935E-1,-3.468848E-3,-7.0444566E-1,6.37661E-2,-3.6356443E-1,4.7494897E-1,-5.225061E-1,3.5733062E-1,-1.2168542E-1,3.3393177E-1,2.4602596E-2,-8.304211E-1,-1.242362E0,-4.2607564E-1,5.9158523E-2,-6.73723E-1,-3.43273E-1,9.170298E-1,3.100686E-1,-5.88081E-1,-4.65477E-2,9.046675E-2,5.655935E-2,-2.6038766E-2,3.5178326E-2,-4.5941092E-4,6.1180387E-3,-2.2697274E-2,6.986325E-2,-8.857121E-2,-1.6375862E-2,-1.1134876E-1,4.536699E-2,-4.7609277E-2,-7.530715E-2,4.7411826E-2,2.9253056E-2,-6.897998E-2,1.0664436E-1,1.0134141E-2,7.275185E-2,-7.0361696E-2,-5.750523E-3,-5.447119E-2],"categories":[],"categories_nodes":[],"categories_segments":[],"categories_sizes":[],"default_left":[0,0,0,0,0,0,0,0,0,0,0,0,0,0,0,0,0,0,0,0,0,0,0,0,0,0,0,0,0,0,0,0,0,0,0,0,0,0,0,0,0,0,0,0,0,0,0,0,0,0,0],"id":10,"left_children":[1,3,5,7,9,11,13,15,17,19,-1,21,23,25,27,29,31,33,35,37,39,-1,41,43,45,47,49,-1,-1,-1,-1,-1,-1,-1,-1,-1,-1,-1,-1,-1,-1,-1,-1,-1,-1,-1,-1,-1,-1,-1,-1],"loss_changes":[1.1015548E1,1.0262145E1,3.671441E0,7.5695276E0,4.5696163E0,3.3407393E0,3.1946297E0,6.277481E0,1.0268416E1,2.9823294E0,0E0,3.767613E0,3.7392159E0,3.3937607E0,4.1132812E0,6.7645516E0,5.1905003E0,6.865894E0,7.8134804E0,8.747597E-1,3.187533E0,0E0,3.263084E0,1.8047929E0,1.9416218E0,4.3285313E0,2.5798645E0,0E0,0E0,0E0,0E0,0E0,0E0,0E0,0E0,0E0,0E0,0E0,0E0,0E0,0E0,0E0,0E0,0E0,0E0,0E0,0E0,0E0,0E0,0E0,0E0],"parents":[2147483647,0,0,1,1,2,2,3,3,4,4,5,5,6,6,7,7,8,8,9,9,11,11,12,12,13,13,14,14,15,15,16,16,17,17,18,18,19,19,20,20,22,22,23,23,24,24,25,25,26,26],"right_children":[2,4,6,8,10,12,14,16,18,20,-1,22,24,26,28,30,32,34,36,38,40,-1,42,44,46,48,50,-1,-1,-1,-1,-1,-1,-1,-1,-1,-1,-1,-1,-1,-1,-1,-1,-1,-1,-1,-1,-1,-1,-1,-1],"split_conditions":[1.22986E3,5.1432712E5,9.4E1,6.583E-1,6.646E-2,1.11E0,7.832497E-2,5.4E-1,7.441E-2,2E0,6.37661E-2,-4.7431755E-1,2.3978953E0,1.83E-3,3.0445225E0,3.45E-3,-6.6319965E-2,4E0,-7.026697E-1,2.944439E0,1.0995881E-1,5.9158523E-2,8.557E-1,-4.8554793E-1,6.855595E4,3E0,2.1972246E0,-4.65477E-2,9.046675E-2,5.655935E-2,-2.6038766E-2,3.5178326E-2,-4.5941092E-4,6.1180387E-3,-2.2697274E-2,6.986325E-2,-8.857121E-2,-1.6375862E-2,-1.1134876E-1,4.536699E-2,-4.7609277E-2,-7.530715E-2,4.7411826E-2,2.9253056E-2,-6.897998E-2,1.0664436E-1,1.0134141E-2,7.275185E-2,-7.0361696E-2,-5.750523E-3,-5.447119E-2],"split_indices":[4,2,0,1,8,9,26,9,8,12,0,31,19,6,19,6,31,13,32,21,35,0,1,31,2,13,19,0,0,0,0,0,0,0,0,0,0,0,0,0,0,0,0,0,0,0,0,0,0,0,0],"split_type":[0,0,0,0,0,0,0,0,0,0,0,0,0,0,0,0,0,0,0,0,0,0,0,0,0,0,0,0,0,0,0,0,0,0,0,0,0,0,0,0,0,0,0,0,0,0,0,0,0,0,0],"sum_hessian":[7.239679E2,6.453667E2,7.860122E1,6.2151843E2,2.3848225E1,1.7023394E1,6.1577824E1,1.8105643E2,4.4046204E2,2.2451813E1,1.3964118E0,8.556341E0,8.467052E0,5.7821438E1,3.7563858E0,3.7691925E1,1.4336452E2,4.269395E2,1.3522496E1,6.47557E0,1.5976242E1,1.5740814E0,6.9822598E0,3.0484176E0,5.4186344E0,3.949386E0,5.387205E1,1.8084145E0,1.9479713E0,6.9525933E0,3.073933E1,1.09091545E2,3.427297E1,3.660976E2,6.0841938E1,1.5882208E0,1.1934276E1,1.1138145E0,5.361756E0,1.9812214E0,1.3995021E1,5.9760346E0,1.006225E0,1.4132692E0,1.6351485E0,3.1001341E0,2.3185005E0,2.7828763E0,1.1665097E0,8.480174E0,4.5391876E1],"tree_param":{"num_deleted":"0","num_feature":"37","num_nodes":"51","size_leaf_vector":"1"}},{"base_weights":[-1.1426386E-2,7.1862084E-3,-7.1181285E-1,2.3693224E-2,-8.149845E-1,-5.895E-2,-8.576863E-1,1.1215242E-1,-1.052267E-1,-9.6004885E-1,4.203972E-2,-5.8233196E-1,5.3012703E-2,-1.2089428E0,-4.0092131E-1,3.0507034E-2,3.60169E-1,-2.2313616E-1,5.3220365E-2,7.2642015E-3,-1.105508E0,-2.7749948E-3,-6.590989E-2,-6.0042352E-3,-1.0899806E-1,-9.1046077E-1,1.8633969E-1,-2.4946951E-3,4.3799255E-2,4.9134843E-2,-4.513709E-3,-2.0284405E-2,8.462273E-2,9.999646E-3,-6.51434E-2,-1.679254E-2,-9.557238E-2,-7.235362E-3,-9.017686E-2,-2.2220962E-2,4.779674E-2],"categories":[],"categories_nodes":[],"categories_segments":[],"categories_sizes":[],"default_left":[0,0,0,0,0,0,0,0,0,0,0,0,0,0,0,0,0,0,0,0,0,0,0,0,0,0,0,0,0,0,0,0,0,0,0,0,0,0,0,0,0],"id":11,"left_children":[1,3,5,7,9,11,13,15,17,19,-1,21,-1,23,25,27,29,31,33,-1,35,-1,-1,-1,-1,37,39,-1,-1,-1,-1,-1,-1,-1,-1,-1,-1,-1,-1,-1,-1],"loss_changes":[9.488211E0,9.649874E0,1.7438126E0,7.9561334E0,3.2259092E0,2.091033E0,1.9743385E0,8.364641E0,5.3175664E0,2.084772E0,0E0,3.879813E-1,0E0,1.3196688E0,2.6110477E0,9.976532E0,1.0865108E1,6.6200905E0,7.6966968E0,0E0,6.6576004E-1,0E0,0E0,0E0,0E0,7.047019E-1,1.04754E0,0E0,0E0,0E0,0E0,0E0,0E0,0E0,0E0,0E0,0E0,0E0,0E0,0E0,0E0],"parents":[2147483647,0,0,1,1,2,2,3,3,4,4,5,5,6,6,7,7,8,8,9,9,11,11,13,13,14,14,15,15,16,16,17,17,18,18,20,20,25,25,26,26],"right_children":[2,4,6,8,10,12,14,16,18,20,-1,22,-1,24,26,28,30,32,34,-1,36,-1,-1,-1,-1,38,40,-1,-1,-1,-1,-1,-1,-1,-1,-1,-1,-1,-1,-1,-1],"split_conditions":[2.29047E3,8.060856E0,6.393E-1,4.8157E2,5.928E-2,-7.91185E-2,3E0,4.9228802E-1,4E0,5.614E1,4.203972E-2,5.558E-3,5.3012703E-2,-7.6009417E-1,-4.5560414E-1,2.26E0,1.4031668E0,2.9E1,1E0,7.2642015E-3,1E0,-2.7749948E-3,-6.590989E-2,-6.0042352E-3,-1.0899806E-1,9.851852E-2,3.5E2,-2.4946951E-3,4.3799255E-2,4.9134843E-2,-4.513709E-3,-2.0284405E-2,8.462273E-2,9.999646E-3,-6.51434E-2,-1.679254E-2,-9.557238E-2,-7.235362E-3,-9.017686E-2,-2.2220962E-2,4.779674E-2],"split_indices":[4,19,1,4,8,32,12,32,12,4,0,25,0,32,32,9,32,7,10,0,17,0,0,0,0,36,0,0,0,0,0,0,0,0,0,0,0,0,0,0,0],"split_type":[0,0,0,0,0,0,0,0,0,0,0,0,0,0,0,0,0,0,0,0,0,0,0,0,0,0,0,0,0,0,0,0,0,0,0,0,0,0,0,0,0],"sum_hessian":[7.264538E2,7.0861237E2,1.7841455E1,6.956174E2,1.2994977E1,3.5148244E0,1.4326632E1,4.1262338E2,2.82994E2,1.19821E1,1.0128778E0,2.1490963E0,1.3657281E0,7.167787E0,7.1588445E0,3.112763E2,1.0134707E2,1.6201854E2,1.2097546E2,1.5025882E0,1.0479511E1,1.0077794E0,1.1413169E0,1.0323554E0,6.135432E0,3.5383923E0,3.6204522E0,2.789316E2,3.234472E1,6.2663555E1,3.8683514E1,1.5904367E2,2.9748676E0,1.1252169E2,8.453767E0,1.2523706E0,9.22714E0,1.0360444E0,2.502348E0,1.8530129E0,1.7674392E0],"tree_param":{"num_deleted":"0","num_feature":"37","num_nodes":"41","size_leaf_vector":"1"}},{"base_weights":[4.4899352E-4,2.125154E-1,-5.523811E-2,2.52839E-1,-3.1671518E-1,-1.3343035E-2,-3.1580842E-1,2.7916497E-1,-6.276955E-1,-9.467226E-1,5.8036727E-1,8.303419E-2,-1.4431551E-1,6.8842775E-1,-3.7538308E-1,2.3633884E-1,1.1568955E0,-8.471401E-2,5.863774E-3,-1.3179951E0,1.0390533E-2,-5.71839E-2,9.0255E-2,-5.298621E-1,1.1571085E-1,-1.6443098E-1,9.124031E-1,1.0946168E-1,-1.7143488E-2,-1.1448461E-1,-6.233128E-1,2.2124993E-2,-5.153828E-2,1.164528E-1,-1.2355921E-2,-3.413025E-2,-1.1650744E-1,-7.700099E-2,1.6885567E-2,2.0424854E-3,2.4668803E-2,-8.057788E-3,-4.1067455E-2,-2.882705E-3,1.0007184E-1,1.3729062E-2,-4.2782076E-2,-3.5179283E-3,-6.2074456E-2],"categories":[],"categories_nodes":[],"categories_segments":[],"categories_sizes":[],"default_left":[0,0,0,0,0,0,0,0,0,0,0,0,0,0,0,0,0,0,0,0,0,0,0,0,0,0,0,0,0,0,0,0,0,0,0,0,0,0,0,0,0,0,0,0,0,0,0,0,0],"id":12,"left_children":[1,3,5,7,9,11,13,15,17,19,21,23,25,27,29,31,33,-1,-1,35,-1,-1,-1,37,39,41,43,-1,-1,45,47,-1,-1,-1,-1,-1,-1,-1,-1,-1,-1,-1,-1,-1,-1,-1,-1,-1,-1],"loss_changes":[8.687288E0,3.345055E0,6.356226E0,3.4835854E0,6.922125E0,6.360983E0,5.083967E0,4.9616327E0,1.4230838E0,2.9707437E0,4.5468616E0,5.877139E0,4.6901097E0,3.2818675E0,4.8956633E0,4.9260073E0,2.662612E0,0E0,0E0,3.1980515E-2,0E0,0E0,0E0,4.9724984E0,4.7960496E0,4.6261997E0,1.3750002E0,0E0,0E0,4.7380996E0,3.427228E0,0E0,0E0,0E0,0E0,0E0,0E0,0E0,0E0,0E0,0E0,0E0,0E0,0E0,0E0,0E0,0E0,0E0,0E0],"parents":[2147483647,0,0,1,1,2,2,3,3,4,4,5,5,6,6,7,7,8,8,9,9,10,10,11,11,12,12,13,13,14,14,15,15,16,16,19,19,23,23,24,24,25,25,26,26,29,29,30,30],"right_children":[2,4,6,8,10,12,14,16,18,20,22,24,26,28,30,32,34,-1,-1,36,-1,-1,-1,38,40,42,44,-1,-1,46,48,-1,-1,-1,-1,-1,-1,-1,-1,-1,-1,-1,-1,-1,-1,-1,-1,-1,-1],"split_conditions":[9.3E1,5.858E-2,4E0,5.1432712E5,3.559E-2,4.7847E2,1E0,5.4424995E-1,1.206338E-1,7.674E-1,2E0,3.33666E-3,1.7E1,4E0,1.28E-2,2.1E1,2.741E3,-8.471401E-2,5.863774E-3,7.81E-2,1.0390533E-2,-5.71839E-2,9.0255E-2,7.480392E-2,5E0,2.2988506E1,6.3903E2,1.0946168E-1,-1.7143488E-2,7.632537E4,1.89E2,2.2124993E-2,-5.153828E-2,1.164528E-1,-1.2355921E-2,-3.413025E-2,-1.1650744E-1,-7.700099E-2,1.6885567E-2,2.0424854E-3,2.4668803E-2,-8.057788E-3,-4.1067455E-2,-2.882705E-3,1.0007184E-1,1.3729062E-2,-4.2782076E-2,-3.5179283E-3,-6.2074456E-2],"split_indices":[0,8,13,2,6,4,30,25,36,1,12,25,12,12,6,7,3,0,0,14,0,0,0,33,12,24,4,0,0,2,0,0,0,0,0,0,0,0,0,0,0,0,0,0,0,0,0,0,0],"split_type":[0,0,0,0,0,0,0,0,0,0,0,0,0,0,0,0,0,0,0,0,0,0,0,0,0,0,0,0,0,0,0,0,0,0,0,0,0,0,0,0,0,0,0,0,0,0,0,0,0],"sum_hessian":[7.3363306E2,1.5199454E2,5.816385E2,1.4171883E2,1.0275712E1,5.019802E2,7.965829E1,1.3826788E2,3.4509337E0,6.003917E0,4.2717953E0,2.8939352E2,2.1258669E2,3.8698244E0,7.578847E1,1.330456E2,5.2222853E0,1.8204434E0,1.6304903E0,4.2976394E0,1.7062776E0,1.179172E0,3.0926235E0,1.3877951E1,2.7551556E2,2.0944415E2,3.1425395E0,1.9132384E0,1.956586E0,3.7640656E1,3.8147808E1,1.2788963E2,5.1559644E0,4.163631E0,1.0586542E0,1.1260841E0,3.1715553E0,8.5729265E0,5.305024E0,1.8843909E2,8.7076485E1,1.781957E2,3.1248457E1,1.0615906E0,2.080949E0,2.2747686E1,1.4892971E1,8.222661E0,2.9925146E1],"tree_param":{"num_deleted":"0","num_feature":"37","num_nodes":"49","size_leaf_vector":"1"}},{"base_weights":[2.2701267E-3,7.646058E-2,-1.5822653E-1,9.4381444E-2,-7.503888E-1,-3.2774517E-1,-8.427691E-3,1.0667929E-1,-8.087758E-1,-9.1165805E-1,2.2678915E-2,-1.0100664E0,-2.630491E-1,2.0107818E-1,-3.5412577E-1,3.1220606E-2,2.705411E-1,-8.418446E-2,1.4967414E-2,1.5990255E-2,-1.1298276E0,8.205879E-2,-1.1569168E-1,-5.0961114E-2,-4.8932183E-1,6.6785985E-1,6.8432447E-3,-6.979093E-1,3.404517E-2,4.525172E-3,-6.941013E-2,1.3458545E-2,5.1528353E-2,-1.057795E-1,-1.2897309E-2,-4.8797563E-2,5.3799104E-2,-3.4439467E-2,1.7629538E-2,2.3146657E-2,-5.0102692E-2,-5.2630782E-2,6.610944E-2,1.4920465E-2,-3.2962523E-2,-6.647902E-2,-8.685976E-3,1.5706524E-2,-8.100273E-2],"categories":[],"categories_nodes":[],"categories_segments":[],"categories_sizes":[],"default_left":[0,0,0,0,0,0,0,0,0,0,0,0,0,0,0,0,0,0,0,0,0,0,0,0,0,0,0,0,0,0,0,0,0,0,0,0,0,0,0,0,0,0,0,0,0,0,0,0,0],"id":13,"left_children":[1,3,5,7,9,11,13,15,17,19,-1,21,23,25,27,29,31,-1,-1,-1,33,35,-1,37,39,41,43,45,47,-1,-1,-1,-1,-1,-1,-1,-1,-1,-1,-1,-1,-1,-1,-1,-1,-1,-1,-1,-1],"loss_changes":[8.798213E0,7.558116E0,5.9288635E0,5.5892744E0,2.0642962E0,4.570409E0,9.126771E0,6.046414E0,1.839325E0,2.5554547E0,0E0,4.469672E0,4.8420997E0,7.1116867E0,6.3682265E0,7.7127805E0,5.7876587E0,0E0,0E0,0E0,1.3115244E0,1.8620439E0,0E0,5.6007495E0,5.40174E0,5.388075E0,4.3240113E0,1.8908291E0,4.153384E0,0E0,0E0,0E0,0E0,0E0,0E0,0E0,0E0,0E0,0E0,0E0,0E0,0E0,0E0,0E0,0E0,0E0,0E0,0E0,0E0],"parents":[2147483647,0,0,1,1,2,2,3,3,4,4,5,5,6,6,7,7,8,8,9,9,11,11,12,12,13,13,14,14,15,15,16,16,20,20,21,21,23,23,24,24,25,25,26,26,27,27,28,28],"right_children":[2,4,6,8,10,12,14,16,18,20,-1,22,24,26,28,30,32,-1,-1,-1,34,36,-1,38,40,42,44,46,48,-1,-1,-1,-1,-1,-1,-1,-1,-1,-1,-1,-1,-1,-1,-1,-1,-1,-1,-1,-1],"split_conditions":[1.3862944E0,3.0680885E0,2.083E-2,3.01294E3,8E0,4.21E-2,4.003E-2,5E0,3.261E-2,7.81E-2,2.2678915E-2,-3.543861E-1,1.314E-2,6.662E-1,1.1448052E-1,2.073E3,4.194E-2,-8.418446E-2,1.4967414E-2,1.5990255E-2,1.2097403E-1,1E0,-1.1569168E-1,2E0,1E0,9.75989E3,6.3903E2,6.71E2,1.387E3,4.525172E-3,-6.941013E-2,1.3458545E-2,5.1528353E-2,-1.057795E-1,-1.2897309E-2,-4.8797563E-2,5.3799104E-2,-3.4439467E-2,1.7629538E-2,2.3146657E-2,-5.0102692E-2,-5.2630782E-2,6.610944E-2,1.4920465E-2,-3.2962523E-2,-6.647902E-2,-8.685976E-3,1.5706524E-2,-8.100273E-2],"split_indices":[22,31,8,4,12,14,8,12,6,14,0,31,8,1,36,0,8,0,0,0,36,7,0,15,17,2,4,0,3,0,0,0,0,0,0,0,0,0,0,0,0,0,0,0,0,0,0,0,0],"split_type":[0,0,0,0,0,0,0,0,0,0,0,0,0,0,0,0,0,0,0,0,0,0,0,0,0,0,0,0,0,0,0,0,0,0,0,0,0,0,0,0,0,0,0,0,0,0,0,0,0],"sum_hessian":[7.368751E2,5.0428857E2,2.3258652E2,4.944577E2,9.830862E0,1.0855418E2,1.2403235E2,4.886854E2,5.772307E0,8.606576E0,1.2242861E0,8.1359E0,1.00418274E2,7.7489296E1,4.654305E1,3.3541614E2,1.5326926E2,4.592567E0,1.17974E0,1.4258676E0,7.1807084E0,2.5532706E0,5.582629E0,5.2466267E1,4.7952007E1,2.2053156E1,5.543614E1,2.4259598E1,2.2283451E1,3.2712943E2,8.286726E0,1.2145597E2,3.181329E1,5.6860695E0,1.494639E0,1.1602623E0,1.3930082E0,2.1627497E1,3.083877E1,7.0064483E0,4.094556E1,2.0186782E0,2.003448E1,3.918414E1,1.6252E1,1.9456135E1,4.8034625E0,1.9995312E1,2.2881393E0],"tree_param":{"num_deleted":"0","num_feature":"37","num_nodes":"49","size_leaf_vector":"1"}},{"base_weights":[-4.1358404E-2,-2.1718236E-2,-5.2407867E-1,3.353072E-4,-4.212844E-1,-7.665167E-1,-9.164497E-2,-1.373439E-1,6.858058E-2,-2.4271463E-1,-1.1055753E0,9.663349E-2,-9.3731886E-1,2.2808133E-1,-8.271377E-1,-1.002362E-1,-1.056827E0,1.6214071E-1,-1.07281424E-1,-6.7542374E-1,3.377699E-2,-1.00363806E-1,-1.0250979E-2,6.7121886E-2,-5.189666E-2,1.0462847E-2,-1.0975162E0,7.929537E-2,-1.9896409E-1,-8.377961E-2,-1.0946574E-2,6.775582E-3,-1.9043515E-2,-1.148153E-1,-1.2108676E-2,1.9126581E-2,-1.1017544E-2,1.58712E-3,-3.2922342E-2,9.720869E-3,-7.257581E-2,3.0422527E-2,-4.339382E-2,-1.0398191E-1,-2.5066521E-2,-5.6171574E-2,3.2350227E-2],"categories":[],"categories_nodes":[],"categories_segments":[],"categories_sizes":[],"default_left":[0,0,0,0,0,0,0,0,0,0,0,0,0,0,0,0,0,0,0,0,0,0,0,0,0,0,0,0,0,0,0,0,0,0,0,0,0,0,0,0,0,0,0,0,0,0,0],"id":14,"left_children":[1,3,5,7,9,11,13,15,17,19,21,23,25,27,29,31,33,35,37,39,41,-1,-1,-1,-1,-1,43,-1,45,-1,-1,-1,-1,-1,-1,-1,-1,-1,-1,-1,-1,-1,-1,-1,-1,-1,-1],"loss_changes":[6.9105997E0,6.1914473E0,2.9177585E0,6.2751994E0,4.222534E0,2.7629547E0,2.8634176E0,7.4460425E0,7.3643355E0,3.6631732E0,9.057865E-1,2.70281E0,2.7487764E0,3.0362601E0,4.1319346E-1,5.4702425E0,2.6884089E0,6.7666454E0,6.0285783E0,2.310153E0,4.1030164E0,0E0,0E0,0E0,0E0,0E0,1.7095833E0,0E0,2.2325988E0,0E0,0E0,0E0,0E0,0E0,0E0,0E0,0E0,0E0,0E0,0E0,0E0,0E0,0E0,0E0,0E0,0E0,0E0],"parents":[2147483647,0,0,1,1,2,2,3,3,4,4,5,5,6,6,7,7,8,8,9,9,10,10,11,11,12,12,13,13,14,14,15,15,16,16,17,17,18,18,19,19,20,20,26,26,28,28],"right_children":[2,4,6,8,10,12,14,16,18,20,22,24,26,28,30,32,34,36,38,40,42,-1,-1,-1,-1,-1,44,-1,46,-1,-1,-1,-1,-1,-1,-1,-1,-1,-1,-1,-1,-1,-1,-1,-1,-1,-1],"split_conditions":[1.7373618E0,5E0,1.61E0,1.3E-1,8.4014E2,7.94E-2,7.13E2,7.629E-2,9.1607146E-2,1.579E-2,3E0,7.0358425E-2,8E0,1.91E0,3E0,2E0,5.2526E2,3.444E-1,4.55E2,6.8E-3,6E0,-1.00363806E-1,-1.0250979E-2,6.7121886E-2,-5.189666E-2,1.0462847E-2,1.255253E-1,7.929537E-2,1.62E2,-8.377961E-2,-1.0946574E-2,6.775582E-3,-1.9043515E-2,-1.148153E-1,-1.2108676E-2,1.9126581E-2,-1.1017544E-2,1.58712E-3,-3.2922342E-2,9.720869E-3,-7.257581E-2,3.0422527E-2,-4.339382E-2,-1.0398191E-1,-2.5066521E-2,-5.6171574E-2,3.2350227E-2],"split_indices":[31,13,9,14,4,14,0,8,33,8,15,33,7,9,13,15,4,14,0,8,13,0,0,0,0,0,35,0,0,0,0,0,0,0,0,0,0,0,0,0,0,0,0,0,0,0,0],"split_type":[0,0,0,0,0,0,0,0,0,0,0,0,0,0,0,0,0,0,0,0,0,0,0,0,0,0,0,0,0,0,0,0,0,0,0,0,0,0,0,0,0,0,0,0,0,0,0],"sum_hessian":[7.291124E2,7.016113E2,2.7501074E1,6.6585925E2,3.5752087E1,1.7126675E1,1.03744E1,2.2033636E2,4.455229E2,2.9427502E1,6.324587E0,2.900948E0,1.4225726E1,7.7118654E0,2.6625347E0,2.1285516E2,7.48121E0,2.9086057E2,1.5466234E2,1.0910206E1,1.8517296E1,5.2421236E0,1.0824634E0,1.3903823E0,1.5105658E0,1.8792905E0,1.2346436E1,2.2931194E0,5.418746E0,1.6267594E0,1.0357752E0,9.1052605E1,1.2180255E2,4.8637776E0,2.6174326E0,2.3162915E2,5.923142E1,1.09744026E2,4.491831E1,2.5653176E0,8.344888E0,1.1775798E1,6.741498E0,9.292277E0,3.0541582E0,2.865332E0,2.5534143E0],"tree_param":{"num_deleted":"0","num_feature":"37","num_nodes":"47","size_leaf_vector":"1"}},{"base_weights":[-9.417115E-3,1.9525896E-1,-7.636569E-2,2.570616E-1,-3.5383305E-1,-3.6808813E-1,-2.5274595E-2,5.6489646E-1,1.9897851E-1,1.8640848E-1,-8.744071E-1,-2.04601E-1,-7.9811186E-1,-1.3451092E-2,-9.993655E-2,-2.5805196E-1,8.6844045E-1,-3.8909245E-2,3.2805708E-1,-8.254483E-1,6.1975026E-1,-1.1044891E0,-8.964072E-2,-3.217681E-1,3.9023548E-1,-1.1026708E0,-5.694779E-3,2.0809455E-1,-6.936587E-2,-6.337744E-2,4.2613674E-2,9.6103564E-2,1.3432575E-2,-7.667661E-2,5.4036966E-3,3.890533E-2,1.2988496E-3,-8.211947E-2,-1.6118402E-2,-6.1643455E-2,8.492297E-2,4.55219E-3,-1.0403345E-1,5.0750487E-2,-6.5559134E-2,-3.6930557E-2,2.5323719E-2,7.6927066E-2,-2.4102207E-2,-1.009618E-1,-4.0174276E-3,-7.351613E-2,4.9137633E-2,8.508847E-2,8.08307E-3,-2.488191E-2,1.8009046E-3],"categories":[],"categories_nodes":[],"categories_segments":[],"categories_sizes":[],"default_left":[0,0,0,0,0,0,0,0,0,0,0,0,0,0,0,0,0,0,0,0,0,0,0,0,0,0,0,0,0,0,0,0,0,0,0,0,0,0,0,0,0,0,0,0,0,0,0,0,0,0,0,0,0,0,0,0,0],"id":15,"left_children":[1,3,5,7,9,11,13,15,17,19,21,23,25,27,-1,29,31,33,35,37,39,41,43,45,47,49,51,53,55,-1,-1,-1,-1,-1,-1,-1,-1,-1,-1,-1,-1,-1,-1,-1,-1,-1,-1,-1,-1,-1,-1,-1,-1,-1,-1,-1,-1],"loss_changes":[9.987214E0,6.187608E0,8.174759E0,2.7852125E0,5.392864E0,5.5848227E0,6.7606444E0,6.5141554E0,4.2464986E0,4.874406E0,1.6427026E0,4.348018E0,5.3459024E0,5.7731094E0,0E0,3.6134655E0,4.141016E0,4.899782E0,4.4081545E0,2.2124147E-1,5.4476566E0,1.7512398E0,2.2505994E0,4.7137995E0,4.407293E0,2.622469E0,4.6193414E0,8.4956E0,8.265106E0,0E0,0E0,0E0,0E0,0E0,0E0,0E0,0E0,0E0,0E0,0E0,0E0,0E0,0E0,0E0,0E0,0E0,0E0,0E0,0E0,0E0,0E0,0E0,0E0,0E0,0E0,0E0,0E0],"parents":[2147483647,0,0,1,1,2,2,3,3,4,4,5,5,6,6,7,7,8,8,9,9,10,10,11,11,12,12,13,13,15,15,16,16,17,17,18,18,19,19,20,20,21,21,22,22,23,23,24,24,25,25,26,26,27,27,28,28],"right_children":[2,4,6,8,10,12,14,16,18,20,22,24,26,28,-1,30,32,34,36,38,40,42,44,46,48,50,52,54,56,-1,-1,-1,-1,-1,-1,-1,-1,-1,-1,-1,-1,-1,-1,-1,-1,-1,-1,-1,-1,-1,-1,-1,-1,-1,-1,-1,-1],"split_conditions":[6.326E-1,8.84E2,2.1E1,4.17E-3,8.008772E-2,7.49459E-3,7E0,4.982E-1,-3.6260903E-1,4.17E-3,1.2549451E-1,7E0,2.607E-1,5.6E1,-9.993655E-2,-9.168158E-1,2.377E-1,1E0,4.131E-2,5.887E-1,6.4521275E-2,7.4E1,5.610359E5,4.81E2,1.42E0,2E0,1.1E1,6.714E-1,7.369E-1,-6.337744E-2,4.2613674E-2,9.6103564E-2,1.3432575E-2,-7.667661E-2,5.4036966E-3,3.890533E-2,1.2988496E-3,-8.211947E-2,-1.6118402E-2,-6.1643455E-2,8.492297E-2,4.55219E-3,-1.0403345E-1,5.0750487E-2,-6.5559134E-2,-3.6930557E-2,2.5323719E-2,7.6927066E-2,-2.4102207E-2,-1.009618E-1,-4.0174276E-3,-7.351613E-2,4.9137633E-2,8.508847E-2,8.08307E-3,-2.488191E-2,1.8009046E-3],"split_indices":[1,3,3,6,33,25,13,1,32,6,36,12,14,3,0,32,14,30,8,1,33,0,2,0,9,7,3,1,1,0,0,0,0,0,0,0,0,0,0,0,0,0,0,0,0,0,0,0,0,0,0,0,0,0,0,0,0],"split_type":[0,0,0,0,0,0,0,0,0,0,0,0,0,0,0,0,0,0,0,0,0,0,0,0,0,0,0,0,0,0,0,0,0,0,0,0,0,0,0,0,0,0,0,0,0,0,0,0,0,0,0,0,0,0,0,0,0],"sum_hessian":[7.2675806E2,1.7865501E2,5.48103E2,1.6105899E2,1.7596027E1,8.076165E1,4.673414E2,2.4180252E1,1.3687874E2,8.949907E0,8.64612E0,5.9584507E1,2.1177145E1,4.6387128E2,3.4701269E0,6.5559793E0,1.7624271E1,4.8392128E1,8.848661E1,2.412307E0,6.5376005E0,6.3708644E0,2.2752554E0,5.016282E1,9.421688E0,1.5014802E1,6.1623435E0,9.293246E1,3.709388E2,3.9116244E0,2.6443548E0,1.1462911E1,6.1613617E0,4.1906314E0,4.4201496E1,5.832511E1,3.0161499E1,1.3365574E0,1.0757495E0,1.3970292E0,5.140571E0,1.0220606E0,5.348804E0,1.2078512E0,1.0674042E0,4.137398E1,8.788837E0,4.945216E0,4.476472E0,1.2867423E1,2.147379E0,2.2966073E0,3.8657365E0,9.342144E0,8.359032E1,1.0152351E2,2.694153E2],"tree_param":{"num_deleted":"0","num_feature":"37","num_nodes":"57","size_leaf_vector":"1"}},{"base_weights":[1.8278938E-2,3.66878E-2,-6.632493E-1,7.046168E-2,-2.8645185E-1,-9.892953E-1,-2.4304801E-1,-5.5368114E-1,8.7117165E-2,2.4149004E-1,-3.6713642E-1,-1.1614921E0,2.4257625E-2,-6.043178E-1,4.6195626E-1,8.11023E-1,-8.807336E-1,2.3077565E-1,1.9228656E-2,1.0933328E-1,-4.575789E-1,-4.8748526E-1,2.274699E-2,-3.0193605E-2,-1.0591178E-1,7.938743E-3,-8.166996E-2,6.952883E-2,-1.4876367E-2,2.4885505E-3,8.87287E-2,3.2677386E-2,-8.505525E-2,2.4743328E-2,-3.7272125E-3,3.3229627E-3,-4.9793668E-2,-6.314217E-2,1.692668E-2,-4.7209673E-2,2.2595072E-2,-8.386399E-2,2.208582E-2,5.7583902E-2,-4.816188E-2],"categories":[],"categories_nodes":[],"categories_segments":[],"categories_sizes":[],"default_left":[0,0,0,0,0,0,0,0,0,0,0,0,0,0,0,0,0,0,0,0,0,0,0,0,0,0,0,0,0,0,0,0,0,0,0,0,0,0,0,0,0,0,0,0,0],"id":16,"left_children":[1,3,5,7,9,11,13,15,17,19,21,23,-1,25,27,29,31,33,35,-1,37,39,41,-1,-1,43,-1,-1,-1,-1,-1,-1,-1,-1,-1,-1,-1,-1,-1,-1,-1,-1,-1,-1,-1],"loss_changes":[9.084036E0,7.7041264E0,2.3687344E0,6.683033E0,2.9350362E0,2.6664295E0,2.736094E0,8.179178E0,6.066838E0,8.067641E0,2.7494493E0,6.950836E-1,0E0,1.7452676E0,1.1733205E0,8.382151E-1,3.7206202E0,4.363065E0,6.0926857E0,0E0,1.6286054E0,3.6941214E0,4.283507E0,0E0,0E0,2.0616727E0,0E0,0E0,0E0,0E0,0E0,0E0,0E0,0E0,0E0,0E0,0E0,0E0,0E0,0E0,0E0,0E0,0E0,0E0,0E0],"parents":[2147483647,0,0,1,1,2,2,3,3,4,4,5,5,6,6,7,7,8,8,9,9,10,10,11,11,13,13,14,14,15,15,16,16,17,17,18,18,20,20,21,21,22,22,25,25],"right_children":[2,4,6,8,10,12,14,16,18,20,22,24,-1,26,28,30,32,34,36,-1,38,40,42,-1,-1,44,-1,-1,-1,-1,-1,-1,-1,-1,-1,-1,-1,-1,-1,-1,-1,-1,-1,-1,-1],"split_conditions":[2.522E3,1.29942E3,2.13E-2,8.4903E-4,1E0,6.727432E0,5E0,4.2195077E0,6.783E-1,5.2040067E0,3.672E-2,1.0995881E-1,2.4257625E-2,6.1233175E-1,4.571E3,3.34E-4,1.6683E-4,3.46E2,7.441E-2,1.0933328E-1,1.88036E3,6.8617115E0,2E0,-3.0193605E-2,-1.0591178E-1,3.2862412E5,-8.166996E-2,6.952883E-2,-1.4876367E-2,2.4885505E-3,8.87287E-2,3.2677386E-2,-8.505525E-2,2.4743328E-2,-3.7272125E-3,3.3229627E-3,-4.9793668E-2,-6.314217E-2,1.692668E-2,-4.7209673E-2,2.2595072E-2,-8.386399E-2,2.208582E-2,5.7583902E-2,-4.816188E-2],"split_indices":[3,4,8,25,12,23,12,23,1,23,8,35,0,32,3,25,25,3,8,0,4,23,12,0,0,2,0,0,0,0,0,0,0,0,0,0,0,0,0,0,0,0,0,0,0],"split_type":[0,0,0,0,0,0,0,0,0,0,0,0,0,0,0,0,0,0,0,0,0,0,0,0,0,0,0,0,0,0,0,0,0,0,0,0,0,0,0,0,0,0,0,0,0],"sum_hessian":[7.211096E2,7.030652E2,1.804443E1,6.372437E2,6.5821434E1,9.397955E0,8.646475E0,1.5725035E1,6.215187E2,8.461626E0,5.735981E1,8.382552E0,1.0154033E0,5.811347E0,2.835128E0,2.7539077E0,1.29711275E1,1.986844E2,4.228343E2,2.8766222E0,5.5850043E0,4.3639023E1,1.3720788E1,2.0087066E0,6.3738456E0,2.7501333E0,3.0612137E0,1.5313847E0,1.3037434E0,1.0668751E0,1.6870326E0,1.4545925E0,1.1516535E1,1.5476021E2,4.392419E1,4.0953128E2,1.3303006E1,3.61405E0,1.9709544E0,3.8712E1,4.9270196E0,2.024245E0,1.1696544E1,1.1859694E0,1.5641638E0],"tree_param":{"num_deleted":"0","num_feature":"37","num_nodes":"45","size_leaf_vector":"1"}},{"base_weights":[-4.827231E-3,8.4728844E-2,-1.2744965E-1,1.0608625E-1,-7.123372E-1,-9.450557E-2,-6.638461E-1,2.928774E-1,4.2219896E-2,2.8677223E-2,-9.0111005E-1,-6.1544463E-2,-6.161314E-1,1.8011123E-1,-8.936306E-1,3.3150315E-1,-7.105605E-1,-8.967134E-2,1.4930244E-1,3.6567006E-2,-3.498957E-2,-9.1331685E-3,-8.0778815E-2,1.1798844E-1,-1.8166326E-1,-7.5692385E-1,-7.360965E-2,7.271597E-2,-3.9527245E-2,-1.0527848E0,2.380242E-2,1.667254E-2,5.3597473E-2,-9.2238136E-2,1.4472885E-2,-6.348901E-2,-3.220687E-3,5.8576874E-3,4.258592E-2,-2.7333116E-2,1.5732348E-2,-2.864593E-3,-2.7288027E-2,1.5524423E-2,-7.056407E-2,3.817811E-2,-5.2385233E-2,-2.8970731E-2,-9.455159E-2],"categories":[],"categories_nodes":[],"categories_segments":[],"categories_sizes":[],"default_left":[0,0,0,0,0,0,0,0,0,0,0,0,0,0,0,0,0,0,0,0,0,0,0,0,0,0,0,0,0,0,0,0,0,0,0,0,0,0,0,0,0,0,0,0,0,0,0,0,0],"id":17,"left_children":[1,3,5,7,9,11,13,15,17,19,21,23,25,27,29,31,33,35,37,-1,-1,-1,-1,39,41,43,45,-1,-1,47,-1,-1,-1,-1,-1,-1,-1,-1,-1,-1,-1,-1,-1,-1,-1,-1,-1,-1,-1],"loss_changes":[7.972061E0,7.218075E0,5.3515387E0,4.87277E0,1.5755701E0,4.9452143E0,3.566905E0,4.2729807E0,4.3397017E0,8.4250903E-1,6.42118E-1,5.924157E0,1.2515473E0,2.7049444E0,2.9620485E0,4.0679855E0,1.8569095E0,4.764275E0,4.898593E0,0E0,0E0,0E0,0E0,4.056528E0,3.8105655E0,1.7752581E0,1.7960907E0,0E0,0E0,6.906929E-1,0E0,0E0,0E0,0E0,0E0,0E0,0E0,0E0,0E0,0E0,0E0,0E0,0E0,0E0,0E0,0E0,0E0,0E0,0E0],"parents":[2147483647,0,0,1,1,2,2,3,3,4,4,5,5,6,6,7,7,8,8,9,9,10,10,11,11,12,12,13,13,14,14,15,15,16,16,17,17,18,18,23,23,24,24,25,25,26,26,29,29],"right_children":[2,4,6,8,10,12,14,16,18,20,22,24,26,28,30,32,34,36,38,-1,-1,-1,-1,40,42,44,46,-1,-1,48,-1,-1,-1,-1,-1,-1,-1,-1,-1,-1,-1,-1,-1,-1,-1,-1,-1,-1,-1],"split_conditions":[4.7847E2,3.664E3,5E0,6.326E-1,1.051E-1,2.29047E3,6.268E-1,2.8122854E0,1.657E-1,5.590987E0,2.9E1,1E0,6.248043E0,2E0,1.9052094E5,1.2097403E-1,1.498E-1,2.6E1,7.950149E-1,3.6567006E-2,-3.498957E-2,-9.1331685E-3,-8.0778815E-2,9.6642E-4,5.669881E0,-4.991222E-1,2.171E-2,7.271597E-2,-3.9527245E-2,4.6051702E0,2.380242E-2,1.667254E-2,5.3597473E-2,-9.2238136E-2,1.4472885E-2,-6.348901E-2,-3.220687E-3,5.8576874E-3,4.258592E-2,-2.7333116E-2,1.5732348E-2,-2.864593E-3,-2.7288027E-2,1.5524423E-2,-7.056407E-2,3.817811E-2,-5.2385233E-2,-2.8970731E-2,-9.455159E-2],"split_indices":[4,3,13,1,14,4,1,32,14,23,7,7,23,30,2,36,14,3,32,0,0,0,0,25,23,31,8,0,0,23,0,0,0,0,0,0,0,0,0,0,0,0,0,0,0,0,0,0,0],"split_type":[0,0,0,0,0,0,0,0,0,0,0,0,0,0,0,0,0,0,0,0,0,0,0,0,0,0,0,0,0,0,0,0,0,0,0,0,0,0,0,0,0,0,0,0,0,0,0,0,0],"sum_hessian":[7.2396497E2,4.185732E2,3.0539178E2,4.0849448E2,1.0078716E1,2.8882883E2,1.6562935E1,1.0316882E2,3.0532565E2,2.218447E0,7.860269E0,2.7271423E2,1.6114603E1,3.590789E0,1.2972145E1,9.9989525E1,3.1793025E0,1.3688722E2,1.6843843E2,1.1659132E0,1.0525337E0,1.2021524E0,6.658117E0,1.0932772E2,1.6338652E2,1.2480526E1,3.6340773E0,1.5581653E0,2.0326238E0,1.1545668E1,1.4264779E0,7.450761E1,2.5481918E1,1.9287624E0,1.25054E0,7.9906316E0,1.2889659E2,1.4151903E2,2.6919407E1,1.5487804E1,9.383991E1,8.596699E1,7.741953E1,1.3871516E0,1.1093374E1,1.9576365E0,1.676441E0,2.4176638E0,9.128003E0],"tree_param":{"num_deleted":"0","num_feature":"37","num_nodes":"49","size_leaf_vector":"1"}},{"base_weights":[-1.055301E-2,3.6325727E-3,-6.481668E-1,-1.579463E-2,3.8598228E-1,-9.486248E-1,-1.040455E-1,-8.528944E-3,-9.888749E-1,5.724078E-1,-1.4692515E-1,-3.048647E-1,-9.267426E-2,-4.3696654E-1,5.684365E-2,1.4675079E-3,-6.2643087E-1,-5.9192115E-3,-9.675486E-2,-4.2730436E-1,7.6142055E-1,-4.7319007E-1,7.968727E-2,2.274161E-2,-6.6220455E-2,2.1330131E-2,-6.5319315E-2,6.006045E-2,-9.398269E-4,-1.1717697E-3,-6.7736536E-2,-6.883111E-2,2.6249902E-2,-1.2990502E-2,7.531716E-2,-1.8023753E-3,-1.0357139E-1],"categories":[],"categories_nodes":[],"categories_segments":[],"categories_sizes":[],"default_left":[0,0,0,0,0,0,0,0,0,0,0,0,0,0,0,0,0,0,0,0,0,0,0,0,0,0,0,0,0,0,0,0,0,0,0,0,0],"id":18,"left_children":[1,3,5,7,9,11,13,15,17,19,21,23,-1,25,-1,27,29,-1,-1,31,33,35,-1,-1,-1,-1,-1,-1,-1,-1,-1,-1,-1,-1,-1,-1,-1],"loss_changes":[6.544476E0,5.2691584E0,2.4757247E0,4.765615E0,3.491695E0,1.0004253E0,2.1343234E0,4.1471114E0,9.186001E-1,5.165473E0,4.0831356E0,1.4122305E0,0E0,1.6578681E0,0E0,6.5596585E0,1.4280553E0,0E0,0E0,1.8243679E0,3.7956123E0,3.011005E0,0E0,0E0,0E0,0E0,0E0,0E0,0E0,0E0,0E0,0E0,0E0,0E0,0E0,0E0,0E0],"parents":[2147483647,0,0,1,1,2,2,3,3,4,4,5,5,6,6,7,7,8,8,9,9,10,10,11,11,13,13,15,15,16,16,19,19,20,20,21,21],"right_children":[2,4,6,8,10,12,14,16,18,20,22,24,-1,26,-1,28,30,-1,-1,32,34,36,-1,-1,-1,-1,-1,-1,-1,-1,-1,-1,-1,-1,-1,-1,-1],"split_conditions":[2.4217E3,1.3E1,5E0,7E0,3.54E2,7.012E-1,1.35E-2,3.664E3,1.5E0,1.093615E4,2.43E-2,1.54E0,-9.267426E-2,3.01294E3,5.684365E-2,6.764E1,1.5E0,-5.9192115E-3,-9.675486E-2,6.849E-1,3.03E-3,1.392E-2,7.968727E-2,2.274161E-2,-6.6220455E-2,2.1330131E-2,-6.5319315E-2,6.006045E-2,-9.398269E-4,-1.1717697E-3,-6.7736536E-2,-6.883111E-2,2.6249902E-2,-1.2990502E-2,7.531716E-2,-1.8023753E-3,-1.0357139E-1],"split_indices":[4,12,12,13,3,1,25,3,30,2,6,9,0,4,0,4,30,0,0,1,6,6,0,0,0,0,0,0,0,0,0,0,0,0,0,0,0],"split_type":[0,0,0,0,0,0,0,0,0,0,0,0,0,0,0,0,0,0,0,0,0,0,0,0,0,0,0,0,0,0,0,0,0,0,0,0,0],"sum_hessian":[7.222921E2,7.0754504E2,1.4747104E1,6.742453E2,3.3299736E1,9.0219E0,5.725204E0,6.702495E2,3.9957783E0,2.4614717E1,8.685019E0,2.820522E0,6.2013783E0,4.393265E0,1.3319389E0,6.6056055E2,9.68896E0,1.0355961E0,2.9601822E0,3.7133942E0,2.0901323E1,7.212332E0,1.472687E0,1.5408332E0,1.2796887E0,1.6436359E0,2.749629E0,1.04812565E1,6.500793E2,2.847353E0,6.8416076E0,2.2719502E0,1.4414439E0,3.4251344E0,1.7476189E1,5.32073E0,1.8916012E0],"tree_param":{"num_deleted":"0","num_feature":"37","num_nodes":"37","size_leaf_vector":"1"}},{"base_weights":[-8.30231E-3,5.3501315E-2,-1.414209E-1,-2.5410765E-1,9.374398E-2,-5.5355854E-2,-4.5462152E-1,-6.005602E-1,1.6229947E-1,1.3224897E-1,-2.2845411E-1,-2.3911782E-1,2.5172868E-1,-8.555348E-1,-1.7284264E-1,-8.070912E-1,4.1124028E-1,-4.4864884E-1,5.986693E-1,1.4886017E-1,-6.3380265E-1,7.8992707E-1,-3.5821432E-1,-3.677162E-2,-4.5031548E-1,1.0332007E-1,1.7542836E-1,-1.008651E0,3.3216476E-2,3.527777E-1,-6.030677E-1,5.861011E-4,-8.750016E-2,6.753864E-2,-5.7797506E-2,-9.194757E-2,1.6814837E-2,9.39046E-2,-5.479726E-5,6.0154824E-3,2.7785284E-2,-9.184027E-2,-1.1496726E-2,-2.5224255E-2,9.075533E-2,7.344171E-2,-3.772434E-2,-1.973611E-2,2.5584076E-2,-7.7466806E-3,-5.0355256E-2,-3.3821221E-3,4.1706186E-2,4.7992505E-2,-9.1096796E-2,-6.544897E-2,5.34114E-2,-7.33416E-2,3.9082687E-2],"categories":[],"categories_nodes":[],"categories_segments":[],"categories_sizes":[],"default_left":[0,0,0,0,0,0,0,0,0,0,0,0,0,0,0,0,0,0,0,0,0,0,0,0,0,0,0,0,0,0,0,0,0,0,0,0,0,0,0,0,0,0,0,0,0,0,0,0,0,0,0,0,0,0,0,0,0,0,0],"id":19,"left_children":[1,3,5,7,9,11,13,15,17,19,21,23,25,27,29,31,33,35,37,39,41,43,45,47,49,-1,51,53,-1,55,57,-1,-1,-1,-1,-1,-1,-1,-1,-1,-1,-1,-1,-1,-1,-1,-1,-1,-1,-1,-1,-1,-1,-1,-1,-1,-1,-1,-1],"loss_changes":[5.9050493E0,6.092865E0,6.1087837E0,8.318907E0,5.418003E0,1.0197591E1,5.377801E0,6.8767586E0,7.378394E0,5.038724E0,6.4575934E0,4.8083205E0,5.147734E0,4.2976885E0,6.991744E0,6.159273E0,3.5414076E0,5.6350203E0,5.511127E0,5.5456676E0,1.9611673E0,2.487276E0,6.5273943E0,4.47651E0,3.4312582E0,0E0,4.8616624E0,4.466297E0,0E0,5.7532687E0,6.2192545E0,0E0,0E0,0E0,0E0,0E0,0E0,0E0,0E0,0E0,0E0,0E0,0E0,0E0,0E0,0E0,0E0,0E0,0E0,0E0,0E0,0E0,0E0,0E0,0E0,0E0,0E0,0E0,0E0],"parents":[2147483647,0,0,1,1,2,2,3,3,4,4,5,5,6,6,7,7,8,8,9,9,10,10,11,11,12,12,13,13,14,14,15,15,16,16,17,17,18,18,19,19,20,20,21,21,22,22,23,23,24,24,26,26,27,27,29,29,30,30],"right_children":[2,4,6,8,10,12,14,16,18,20,22,24,26,28,30,32,34,36,38,40,42,44,46,48,50,-1,52,54,-1,56,58,-1,-1,-1,-1,-1,-1,-1,-1,-1,-1,-1,-1,-1,-1,-1,-1,-1,-1,-1,-1,-1,-1,-1,-1,-1,-1,-1,-1],"split_conditions":[1.3862944E0,2.9E-1,4.003E-2,4E0,1.26197E3,2.242E-2,1.1207408E-1,5.49312E-2,7.495E-1,2.7474573E0,7.8573E3,4.1381E2,4E-2,6.6559196E-1,1.32E2,2.4373E2,1.909E3,3.8803E2,2E0,1.2097403E-1,2E0,6.679487E-2,-9.95177E-1,2.6006E2,-7.361082E-1,1.0332007E-1,9.288E-2,-8.6030555E-1,3.3216476E-2,8E0,2.4E0,5.861011E-4,-8.750016E-2,6.753864E-2,-5.7797506E-2,-9.194757E-2,1.6814837E-2,9.39046E-2,-5.479726E-5,6.0154824E-3,2.7785284E-2,-9.184027E-2,-1.1496726E-2,-2.5224255E-2,9.075533E-2,7.344171E-2,-3.772434E-2,-1.973611E-2,2.5584076E-2,-7.7466806E-3,-5.0355256E-2,-3.3821221E-3,4.1706186E-2,4.7992505E-2,-9.1096796E-2,-6.544897E-2,5.34114E-2,-7.33416E-2,3.9082687E-2],"split_indices":[22,9,8,12,4,8,36,31,1,31,2,4,9,31,3,4,0,4,15,36,12,33,32,4,32,0,25,32,0,3,9,0,0,0,0,0,0,0,0,0,0,0,0,0,0,0,0,0,0,0,0,0,0,0,0,0,0,0,0],"split_type":[0,0,0,0,0,0,0,0,0,0,0,0,0,0,0,0,0,0,0,0,0,0,0,0,0,0,0,0,0,0,0,0,0,0,0,0,0,0,0,0,0,0,0,0,0,0,0,0,0,0,0,0,0,0,0,0,0,0,0],"sum_hessian":[7.158265E2,4.8926917E2,2.2655733E2,5.5988323E1,4.3328085E2,1.7864409E2,4.7913235E1,3.0319841E1,2.5668482E1,3.875548E2,4.572605E1,1.119022E2,6.674189E1,1.8935595E1,2.897764E1,2.5348059E1,4.971782E0,1.0683164E1,1.4985317E1,3.8011792E2,7.43687E0,4.592862E0,4.1133186E1,5.7748295E1,5.4153908E1,3.4739919E0,6.32679E1,1.70834E1,1.8521929E0,1.3123833E1,1.5853807E1,6.8529468E0,1.8495113E1,3.7824879E0,1.1892942E0,4.816314E0,5.86685E0,7.158037E0,7.82728E0,2.782213E2,1.0189662E2,2.974081E0,4.462789E0,1.1115882E0,3.481274E0,2.7759192E0,3.835727E1,3.6542355E1,2.1205938E1,1.8731047E1,3.5422863E1,3.936794E1,2.3899958E1,1.0076991E0,1.6075703E1,2.4425206E0,1.0681312E1,1.2439211E1,3.4145966E0],"tree_param":{"num_deleted":"0","num_feature":"37","num_nodes":"59","size_leaf_vector":"1"}},{"base_weights":[-2.9356157E-2,-1.9360902E-2,-8.1383353E-1,-1.1973799E-2,-8.58766E-2,-7.863335E-2,-1.7992203E-4,-4.085059E-1,3.5884024E-3,3.8906116E-2,-7.079053E-1,1.878009E-1,-3.088282E-2,7.4221045E-2,-1.8777583E-2,-6.680347E-2,2.734621E-2,7.335864E-2,9.909016E-3,-1.3697458E-3,-5.1332533E-2],"categories":[],"categories_nodes":[],"categories_segments":[],"categories_sizes":[],"default_left":[0,0,0,0,0,0,0,0,0,0,0,0,0,0,0,0,0,0,0,0,0],"id":20,"left_children":[1,3,5,7,-1,-1,-1,9,11,13,15,17,19,-1,-1,-1,-1,-1,-1,-1,-1],"loss_changes":[5.616682E0,5.5181623E0,1.2345881E0,4.3604875E0,0E0,0E0,0E0,3.602034E0,4.328251E0,3.050174E0,2.4259653E0,4.8955483E0,4.815569E0,0E0,0E0,0E0,0E0,0E0,0E0,0E0,0E0],"parents":[2147483647,0,0,1,1,2,2,3,3,7,7,8,8,9,9,10,10,11,11,12,12],"right_children":[2,4,6,8,-1,-1,-1,10,12,14,16,18,20,-1,-1,-1,-1,-1,-1,-1,-1],"split_conditions":[3.01294E3,2.0794415E0,1.3886544E-1,3.25E-2,-8.58766E-2,-7.863335E-2,-1.7992203E-4,2.04E-2,7.4E1,1.7254E2,7.567804E-2,6.2E-2,4.847E-1,7.4221045E-2,-1.8777583E-2,-6.680347E-2,2.734621E-2,7.335864E-2,9.909016E-3,-1.3697458E-3,-5.1332533E-2],"split_indices":[4,22,35,14,0,0,0,14,0,4,26,14,14,0,0,0,0,0,0,0,0],"split_type":[0,0,0,0,0,0,0,0,0,0,0,0,0,0,0,0,0,0,0,0,0],"sum_hessian":[7.173269E2,7.09314E2,8.0128975E0,7.053821E2,3.931954E0,6.4566317E0,1.5562657E0,2.5684301E1,6.7969775E2,1.0645737E1,1.5038565E1,1.0643994E2,5.732578E2,1.9430927E0,8.702644E0,1.3596363E1,1.4422015E0,7.5052094E0,9.893474E1,5.61632E2,1.1625776E1],"tree_param":{"num_deleted":"0","num_feature":"37","num_nodes":"21","size_leaf_vector":"1"}},{"base_weights":[8.405115E-4,1.3422929E-1,-4.2580627E-2,3.6881378E-1,5.572853E-2,-2.4228133E-2,-5.643091E-1,5.2584182E-2,9.2511976E-1,1.7936908E-1,-2.2000979E-1,-8.138131E-1,-1.1747768E-2,-9.833931E-1,5.3895384E-2,2.4287479E-1,-7.129367E-1,1.1492455E0,-4.413631E-2,7.9719916E-2,6.464493E-1,-3.2503867E-1,6.997768E-1,3.4053214E-2,-1.0462706E0,-3.0134127E-2,3.674221E-1,2.125735E-2,-1.236314E0,8.284375E-2,-4.4713852E-1,6.268039E-2,-1.0914568E-2,-1.19074635E-1,8.1234455E-2,2.6774078E-3,1.0196536E-1,7.0869006E-2,1.505357E-3,9.981986E-3,1.0080012E-1,-3.5977803E-2,4.4618454E-2,-1.9751806E-2,1.0008179E-1,-1.04030386E-1,-2.004739E-3,9.022072E-3,-6.5082144E-3,-2.820172E-2,4.461921E-2,-1.6161734E-2,-1.1293646E-1,3.4668706E-3,-7.672202E-2],"categories":[],"categories_nodes":[],"categories_segments":[],"categories_sizes":[],"default_left":[0,0,0,0,0,0,0,0,0,0,0,0,0,0,0,0,0,0,0,0,0,0,0,0,0,0,0,0,0,0,0,0,0,0,0,0,0,0,0,0,0,0,0,0,0,0,0,0,0,0,0,0,0,0,0],"id":21,"left_children":[1,3,5,7,9,11,13,15,17,19,21,23,25,27,29,31,33,35,-1,37,39,41,43,-1,45,47,49,-1,51,-1,53,-1,-1,-1,-1,-1,-1,-1,-1,-1,-1,-1,-1,-1,-1,-1,-1,-1,-1,-1,-1,-1,-1,-1,-1],"loss_changes":[4.19777E0,3.2570932E0,5.221875E0,7.7708855E0,4.626192E0,5.2058983E0,4.85522E0,4.455889E0,5.946274E0,4.297473E0,4.29446E0,2.81397E0,3.6504734E0,3.8349352E0,4.6125984E0,5.0884666E0,9.69725E0,1.9511814E0,0E0,3.8201985E0,5.056409E0,4.484874E0,2.7259693E0,0E0,1.8388338E0,3.6603363E0,3.5150814E0,0E0,1.4212761E0,0E0,1.6193283E0,0E0,0E0,0E0,0E0,0E0,0E0,0E0,0E0,0E0,0E0,0E0,0E0,0E0,0E0,0E0,0E0,0E0,0E0,0E0,0E0,0E0,0E0,0E0,0E0],"parents":[2147483647,0,0,1,1,2,2,3,3,4,4,5,5,6,6,7,7,8,8,9,9,10,10,11,11,12,12,13,13,14,14,15,15,16,16,17,17,19,19,20,20,21,21,22,22,24,24,25,25,26,26,28,28,30,30],"right_children":[2,4,6,8,10,12,14,16,18,20,22,24,26,28,30,32,34,36,-1,38,40,42,44,-1,46,48,50,-1,52,-1,54,-1,-1,-1,-1,-1,-1,-1,-1,-1,-1,-1,-1,-1,-1,-1,-1,-1,-1,-1,-1,-1,-1,-1,-1],"split_conditions":[6.326E-1,-4.101553E-1,7.441E-2,5.701E-1,5.8957E2,1E1,1.73E2,5.449E-1,3.744E-2,4.5575E2,6.15E-2,1E0,1.3E1,1E0,2.95E2,1.667E-2,2.06E-2,1.0995881E-1,-4.413631E-2,1.6E1,8.655169E-2,9E0,3.416E-2,3.4053214E-2,5E0,1.31E2,1.013E-1,2.125735E-2,-4.991222E-1,8.284375E-2,8.557E-1,6.268039E-2,-1.0914568E-2,-1.19074635E-1,8.1234455E-2,2.6774078E-3,1.0196536E-1,7.0869006E-2,1.505357E-3,9.981986E-3,1.0080012E-1,-3.5977803E-2,4.4618454E-2,-1.9751806E-2,1.0008179E-1,-1.04030386E-1,-2.004739E-3,9.022072E-3,-6.5082144E-3,-2.820172E-2,4.461921E-2,-1.6161734E-2,-1.1293646E-1,3.4668706E-3,-7.672202E-2],"split_indices":[1,31,8,1,4,0,3,1,6,4,8,12,12,16,3,6,6,35,0,0,25,12,6,0,12,0,14,0,31,0,1,0,0,0,0,0,0,0,0,0,0,0,0,0,0,0,0,0,0,0,0,0,0,0,0],"split_type":[0,0,0,0,0,0,0,0,0,0,0,0,0,0,0,0,0,0,0,0,0,0,0,0,0,0,0,0,0,0,0,0,0,0,0,0,0,0,0,0,0,0,0,0,0,0,0,0,0,0,0,0,0,0,0],"sum_hessian":[7.2277966E2,1.7698729E2,5.457924E2,4.3449265E1,1.3353802E2,5.282567E2,1.7535692E1,2.839996E1,1.5049304E1,9.243834E1,4.1099686E1,7.220739E0,5.2103595E2,1.0098884E1,7.436809E0,2.3292677E1,5.107282E0,1.3258917E1,1.790388E0,7.714956E1,1.5288783E1,3.7467903E1,3.6317818E0,1.0090845E0,6.211654E0,4.978168E2,2.321915E1,1.6919911E0,8.406893E0,2.1525676E0,5.2842417E0,9.164621E0,1.4128056E1,3.6212814E0,1.486001E0,1.4667772E0,1.1792139E1,4.4676733E0,7.2681885E1,8.913457E0,6.375326E0,3.3260666E1,4.207238E0,1.5397027E0,2.0920792E0,4.7550735E0,1.4565806E0,1.3102603E2,3.6679077E2,4.67648E0,1.8542671E1,1.5309064E0,6.875986E0,3.1660087E0,2.1182327E0],"tree_param":{"num_deleted":"0","num_feature":"37","num_nodes":"55","size_leaf_vector":"1"}},{"base_weights":[-1.40475985E-2,-6.761222E-3,-8.349303E-2,9.138393E-3,-4.4450614E-1,-4.539365E-4,1.0342565E0,-6.541227E-1,-3.269621E-3,1.5757333E-2,-4.4367725E-1,1.3087732E0,6.2443917E-3,-9.620799E-1,4.1112503E-1,7.39436E-2,-2.8625542E-1,-1.0378031E-2,5.1342146E-3,-4.823028E-2,4.3724902E-2,2.7521612E-2,1.2342921E-1,3.2119108E-3,-9.3204856E-2,-3.342974E-2,6.1970174E-2,3.0510893E-2,-4.4571023E-2],"categories":[],"categories_nodes":[],"categories_segments":[],"categories_sizes":[],"default_left":[0,0,0,0,0,0,0,0,0,0,0,0,0,0,0,0,0,0,0,0,0,0,0,0,0,0,0,0,0],"id":22,"left_children":[1,3,-1,5,7,9,11,13,15,17,19,21,-1,23,25,-1,27,-1,-1,-1,-1,-1,-1,-1,-1,-1,-1,-1,-1],"loss_changes":[5.3571205E0,4.9525995E0,0E0,6.756512E0,2.304545E0,4.9050765E0,1.5698886E0,5.940407E0,2.6367397E0,4.6477304E0,4.1269007E0,5.7259464E-1,0E0,2.7750797E0,1.6770787E0,0E0,1.6029036E0,0E0,0E0,0E0,0E0,0E0,0E0,0E0,0E0,0E0,0E0,0E0,0E0],"parents":[2147483647,0,0,1,1,3,3,4,4,5,5,6,6,7,7,8,8,9,9,10,10,11,11,13,13,14,14,16,16],"right_children":[2,4,-1,6,8,10,12,14,16,18,20,22,-1,24,26,-1,28,-1,-1,-1,-1,-1,-1,-1,-1,-1,-1,-1,-1],"split_conditions":[7E0,2.00907E3,-8.349303E-2,1.88036E3,-6.0181465E-2,5.1432712E5,2.714E-2,8.231E-1,1.968E-2,7E-1,5.928E-2,3.18E-3,6.2443917E-3,6.1E-1,1.059E-2,7.39436E-2,1.354E-1,-1.0378031E-2,5.1342146E-3,-4.823028E-2,4.3724902E-2,2.7521612E-2,1.2342921E-1,3.2119108E-3,-9.3204856E-2,-3.342974E-2,6.1970174E-2,3.0510893E-2,-4.4571023E-2],"split_indices":[13,4,0,4,32,2,8,1,8,9,8,6,0,9,8,0,14,0,0,0,0,0,0,0,0,0,0,0,0],"split_type":[0,0,0,0,0,0,0,0,0,0,0,0,0,0,0,0,0,0,0,0,0,0,0,0,0,0,0,0,0],"sum_hessian":[7.140172E2,7.0999927E2,4.017952E0,6.860596E2,2.3939688E1,6.806897E2,5.369856E0,1.5902481E1,8.037208E0,6.576018E2,2.3087898E1,3.8856113E0,1.4842445E0,1.2411293E1,3.4911873E0,1.3490608E0,6.6881466E0,1.637932E2,4.9380862E2,2.0227146E1,2.8607523E0,1.2409469E0,2.6446645E0,2.2254117E0,1.0185882E1,1.0186043E0,2.472583E0,1.8126304E0,4.875516E0],"tree_param":{"num_deleted":"0","num_feature":"37","num_nodes":"29","size_leaf_vector":"1"}},{"base_weights":[-3.0502356E-3,4.2762286E-3,-9.368144E-1,6.051003E-2,-1.0411349E-1,-7.1637915E-3,-8.9186706E-2,-2.8806338E-2,1.904664E-1,-4.3060312E-1,-3.5691727E-2,3.114998E-2,-5.7424897E-1,1.5254642E-1,1.1476057E-1,3.157558E-1,-5.7708514E-1,5.6662016E-2,-3.8691655E-1,-1.5831303E-2,1.1411563E-2,-1.2587208E-3,-8.495002E-2,-1.8985834E-2,2.1698752E-2,5.1827896E-2,-6.2937155E-2,-6.737058E-2,1.3972785E-2,2.5490503E-4,5.032083E-2,-1.2300851E-2,-6.321159E-2],"categories":[],"categories_nodes":[],"categories_segments":[],"categories_sizes":[],"default_left":[0,0,0,0,0,0,0,0,0,0,0,0,0,0,0,0,0,0,0,0,0,0,0,0,0,0,0,0,0,0,0,0,0],"id":23,"left_children":[1,3,5,7,9,-1,-1,11,13,15,17,19,21,23,-1,25,27,29,31,-1,-1,-1,-1,-1,-1,-1,-1,-1,-1,-1,-1,-1,-1],"loss_changes":[4.8373275E0,4.2850957E0,7.304468E-1,5.377719E0,5.3496404E0,0E0,0E0,9.016927E0,8.68092E0,4.7215204E0,6.4977427E0,6.3836637E0,7.4194174E0,8.58766E0,0E0,3.2402987E0,7.1330624E0,4.8629236E0,3.7983532E0,0E0,0E0,0E0,0E0,0E0,0E0,0E0,0E0,0E0,0E0,0E0,0E0,0E0,0E0],"parents":[2147483647,0,0,1,1,2,2,3,3,4,4,7,7,8,8,9,9,10,10,11,11,12,12,13,13,15,15,16,16,17,17,18,18],"right_children":[2,4,6,8,10,-1,-1,12,14,16,18,20,22,24,-1,26,28,30,32,-1,-1,-1,-1,-1,-1,-1,-1,-1,-1,-1,-1,-1,-1],"split_conditions":[7E0,9.1607146E-2,1.19E2,4E0,5.3E-1,-7.1637915E-3,-8.9186706E-2,3.416E-2,3.19E0,1.6482E2,5.81E2,8.2E-1,2.26E2,6.4709306E-2,1.1476057E-1,1.475E3,7.3172E2,3.739E-1,2.853E-2,-1.5831303E-2,1.1411563E-2,-1.2587208E-3,-8.495002E-2,-1.8985834E-2,2.1698752E-2,5.1827896E-2,-6.2937155E-2,-6.737058E-2,1.3972785E-2,2.5490503E-4,5.032083E-2,-1.2300851E-2,-6.321159E-2],"split_indices":[13,33,0,12,9,0,0,6,9,4,0,9,0,33,0,3,4,14,6,0,0,0,0,0,0,0,0,0,0,0,0,0,0],"split_type":[0,0,0,0,0,0,0,0,0,0,0,0,0,0,0,0,0,0,0,0,0,0,0,0,0,0,0,0,0,0,0,0,0],"sum_hessian":[7.05503E2,7.009983E2,4.504725E0,4.618349E2,2.3916339E2,1.0431185E0,3.4616065E0,2.7417697E2,1.8765791E2,4.0519974E1,1.9864342E2,2.478731E2,2.6303896E1,1.8319647E2,4.461446E0,6.4582305E0,3.406174E1,1.579496E2,4.0693806E1,8.0902214E1,1.6697087E2,1.2741906E1,1.356199E1,4.252144E1,1.4067503E2,5.280094E0,1.1781363E0,2.5093975E1,8.967768E0,1.453727E2,1.2576907E1,2.6659813E1,1.4033994E1],"tree_param":{"num_deleted":"0","num_feature":"37","num_nodes":"33","size_leaf_vector":"1"}},{"base_weights":[2.8741108E-3,-4.3240058E-1,1.809851E-2,9.349943E-2,-7.367971E-1,-1.0270305E-1,7.2709434E-2,5.395262E-1,-7.5416994E-1,-2.9462335E-1,-1.0565248E0,-3.246233E-2,-5.3277135E-1,1.0522004E-1,-2.7596655E-1,-1.0741246E-1,1.0137775E0,-6.750489E-3,-8.5959725E-2,-8.649297E-1,2.7024052E-1,-6.3689393E-3,-1.2456341E0,2.7034255E-2,-5.6396616E-1,-6.253703E-1,7.8005224E-2,1.4589429E-1,-1.4035553E-1,-3.6259863E-1,6.278536E-1,-6.374457E-2,3.473373E-2,1.0129896E-1,1.8613247E-2,-2.2063052E-2,-7.8794226E-2,8.86855E-2,-2.4651919E-2,-2.4003334E-2,-1.09669775E-1,3.8752763E-3,-8.365002E-2,9.401369E-2,-6.284761E-2,3.2325786E-2,-6.1047066E-2,6.57636E-3,3.03978E-2,1.3753661E-2,-3.5738174E-2,-4.3618888E-2,9.107365E-3,-4.0021706E-2,9.630781E-2],"categories":[],"categories_nodes":[],"categories_segments":[],"categories_sizes":[],"default_left":[0,0,0,0,0,0,0,0,0,0,0,0,0,0,0,0,0,0,0,0,0,0,0,0,0,0,0,0,0,0,0,0,0,0,0,0,0,0,0,0,0,0,0,0,0,0,0,0,0,0,0,0,0,0,0],"id":24,"left_children":[1,3,5,7,9,11,13,15,17,19,21,23,25,27,29,31,33,-1,-1,35,37,-1,39,41,43,45,-1,47,49,51,53,-1,-1,-1,-1,-1,-1,-1,-1,-1,-1,-1,-1,-1,-1,-1,-1,-1,-1,-1,-1,-1,-1,-1,-1],"loss_changes":[4.744542E0,3.9422216E0,4.5699215E0,4.09619E0,1.871273E0,6.4993963E0,5.4345784E0,2.2494016E0,7.206075E-1,2.767467E0,1.4846087E0,5.9129796E0,4.829468E0,4.3846445E0,3.4337642E0,1.7853621E0,5.1812506E-1,0E0,0E0,2.188301E-2,2.627028E0,0E0,4.3117332E-1,3.9239483E0,8.177717E0,4.4314423E0,0E0,5.564217E0,6.0651827E0,3.3685856E0,3.1673555E0,0E0,0E0,0E0,0E0,0E0,0E0,0E0,0E0,0E0,0E0,0E0,0E0,0E0,0E0,0E0,0E0,0E0,0E0,0E0,0E0,0E0,0E0,0E0,0E0],"parents":[2147483647,0,0,1,1,2,2,3,3,4,4,5,5,6,6,7,7,8,8,9,9,10,10,11,11,12,12,13,13,14,14,15,15,16,16,19,19,20,20,22,22,23,23,24,24,25,25,27,27,28,28,29,29,30,30],"right_children":[2,4,6,8,10,12,14,16,18,20,22,24,26,28,30,32,34,-1,-1,36,38,-1,40,42,44,46,-1,48,50,52,54,-1,-1,-1,-1,-1,-1,-1,-1,-1,-1,-1,-1,-1,-1,-1,-1,-1,-1,-1,-1,-1,-1,-1,-1],"split_conditions":[8.4903E-4,8.5E-4,2E0,3.9E1,-4.553953E-1,3.645933E-1,7.1704426E0,1.5E1,7.604E-1,7.0358425E-2,5.5E-1,4.192E-2,2.69E0,4E0,7.138964E-2,2E0,7.722E-1,-6.750489E-3,-8.5959725E-2,6.3223495E0,2.5E-3,-6.3689393E-3,5.96881E0,5.016E-1,4.557E-1,4E-2,7.8005224E-2,6.280579E-1,1.258E-2,3.358E-2,1E1,-6.374457E-2,3.473373E-2,1.0129896E-1,1.8613247E-2,-2.2063052E-2,-7.8794226E-2,8.86855E-2,-2.4651919E-2,-2.4003334E-2,-1.09669775E-1,3.8752763E-3,-8.365002E-2,9.401369E-2,-6.284761E-2,3.2325786E-2,-6.1047066E-2,6.57636E-3,3.03978E-2,1.3753661E-2,-3.5738174E-2,-4.3618888E-2,9.107365E-3,-4.0021706E-2,9.630781E-2],"split_indices":[25,6,12,3,31,31,20,3,1,33,9,6,9,13,26,30,1,0,0,20,6,0,20,14,1,9,0,32,6,8,3,0,0,0,0,0,0,0,0,0,0,0,0,0,0,0,0,0,0,0,0,0,0,0,0],"split_type":[0,0,0,0,0,0,0,0,0,0,0,0,0,0,0,0,0,0,0,0,0,0,0,0,0,0,0,0,0,0,0,0,0,0,0,0,0,0,0,0,0,0,0,0,0,0,0,0,0,0,0,0,0,0,0],"sum_hessian":[7.1378235E2,2.3195898E1,6.905864E2,8.757892E0,1.4438006E1,2.1472514E2,4.758613E2,5.9766273E0,2.7812643E0,6.8651676E0,7.572839E0,1.8550337E2,2.9221777E1,4.3591476E2,3.9946533E1,2.855236E0,3.1213913E0,1.3085552E0,1.4727091E0,3.1517913E0,3.7133765E0,1.4586477E0,6.114191E0,1.6768216E2,1.7821217E1,2.8082436E1,1.1393403E0,3.7432233E2,6.1592434E1,3.6998962E1,2.9475718E0,1.0488625E0,1.8063735E0,1.8895943E0,1.2317969E0,1.0914572E0,2.060334E0,1.1417933E0,2.5715833E0,1.1122296E0,5.001961E0,1.6533742E2,2.344742E0,1.5280533E0,1.6293163E1,3.0853536E0,2.4997082E1,2.9532047E2,7.9001854E1,3.0719618E1,3.0872818E1,2.664178E1,1.0357182E1,1.0407175E0,1.9068543E0],"tree_param":{"num_deleted":"0","num_feature":"37","num_nodes":"55","size_leaf_vector":"1"}},{"base_weights":[-8.0193635E-3,-9.231595E-2,7.4298106E-2,6.6195555E-2,-1.6926087E-1,3.7866887E-1,2.674223E-2,-1.5316845E-1,2.438743E-1,-4.3378025E-1,-9.30293E-2,5.356672E-1,-4.043208E-1,1.5564752E-1,-1.7042318E-1,-2.4720757E-1,6.474313E-1,6.152679E-1,8.779428E-2,-5.62779E-1,2.3459798E-1,5.3369034E-2,-4.1389522E-1,1.9550431E-1,9.236953E-1,-9.557239E-2,1.4982982E-1,1.9133933E-1,-8.073519E-1,-5.056984E-1,-3.537359E-2,-3.809643E-2,1.2589574E-2,-3.286383E-2,8.407193E-2,-5.4414187E-2,6.622096E-2,1.2478858E-2,-7.895245E-2,6.0610343E-3,-6.1889566E-2,-5.2151635E-2,5.278678E-2,9.805871E-3,-5.8171533E-2,-3.8663745E-2,7.661634E-2,3.21233E-2,-6.233635E-2,8.662167E-2,-5.1646117E-2,-2.5778925E-2,8.341716E-2,2.3465525E-2,-7.8859385E-3,-8.301838E-2,1.4241496E-2,-9.581431E-3,-1.0190999E-1,-1.13292E-2,3.942488E-2],"categories":[],"categories_nodes":[],"categories_segments":[],"categories_sizes":[],"default_left":[0,0,0,0,0,0,0,0,0,0,0,0,0,0,0,0,0,0,0,0,0,0,0,0,0,0,0,0,0,0,0,0,0,0,0,0,0,0,0,0,0,0,0,0,0,0,0,0,0,0,0,0,0,0,0,0,0,0,0,0,0],"id":25,"left_children":[1,3,5,7,9,11,13,15,17,19,21,23,25,27,29,31,33,35,37,39,41,43,45,47,49,-1,51,53,55,57,59,-1,-1,-1,-1,-1,-1,-1,-1,-1,-1,-1,-1,-1,-1,-1,-1,-1,-1,-1,-1,-1,-1,-1,-1,-1,-1,-1,-1,-1,-1],"loss_changes":[4.9411254E0,4.3015537E0,5.2053547E0,4.545828E0,4.7405467E0,6.192603E0,7.9741354E0,4.1034775E0,3.6729212E0,4.6817207E0,8.727537E0,5.221156E0,3.984662E0,6.671475E0,5.601155E0,4.484593E0,2.900397E0,5.754213E0,3.5570056E0,6.0531454E0,3.9143248E0,7.0109205E0,6.000883E0,4.947096E0,5.404278E0,0E0,2.8635375E0,5.4582424E0,1.7664909E0,1.038925E1,5.094342E0,0E0,0E0,0E0,0E0,0E0,0E0,0E0,0E0,0E0,0E0,0E0,0E0,0E0,0E0,0E0,0E0,0E0,0E0,0E0,0E0,0E0,0E0,0E0,0E0,0E0,0E0,0E0,0E0,0E0,0E0],"parents":[2147483647,0,0,1,1,2,2,3,3,4,4,5,5,6,6,7,7,8,8,9,9,10,10,11,11,12,12,13,13,14,14,15,15,16,16,17,17,18,18,19,19,20,20,21,21,22,22,23,23,24,24,26,26,27,27,28,28,29,29,30,30],"right_children":[2,4,6,8,10,12,14,16,18,20,22,24,26,28,30,32,34,36,38,40,42,44,46,48,50,-1,52,54,56,58,60,-1,-1,-1,-1,-1,-1,-1,-1,-1,-1,-1,-1,-1,-1,-1,-1,-1,-1,-1,-1,-1,-1,-1,-1,-1,-1,-1,-1,-1,-1],"split_conditions":[1.778E-1,1.9E0,2.019E-1,7E-1,3.5E0,9.512936E-1,5.1975E2,4.125E-2,4.1381E2,9.023E-1,3E0,-3.6260903E-1,1.859E-1,1.05567E2,2E0,1.198E-1,-5.532681E-1,5.033E-1,9.535E-1,6.98E-2,2.6159E2,1.5237534E0,2.0458026E0,9.187E-1,1.085E3,-9.557239E-2,1.2097403E-1,9.849557E-2,1.02E-1,3.197E-2,4.435E-2,-3.809643E-2,1.2589574E-2,-3.286383E-2,8.407193E-2,-5.4414187E-2,6.622096E-2,1.2478858E-2,-7.895245E-2,6.0610343E-3,-6.1889566E-2,-5.2151635E-2,5.278678E-2,9.805871E-3,-5.8171533E-2,-3.8663745E-2,7.661634E-2,3.21233E-2,-6.233635E-2,8.662167E-2,-5.1646117E-2,-2.5778925E-2,8.341716E-2,2.3465525E-2,-7.8859385E-3,-8.301838E-2,1.4241496E-2,-9.581431E-3,-1.0190999E-1,-1.13292E-2,3.942488E-2],"split_indices":[14,5,14,5,5,32,4,6,4,1,13,32,14,5,12,14,31,1,1,14,4,32,32,1,0,0,36,33,33,8,8,0,0,0,0,0,0,0,0,0,0,0,0,0,0,0,0,0,0,0,0,0,0,0,0,0,0,0,0,0,0],"split_type":[0,0,0,0,0,0,0,0,0,0,0,0,0,0,0,0,0,0,0,0,0,0,0,0,0,0,0,0,0,0,0,0,0,0,0,0,0,0,0,0,0,0,0,0,0,0,0,0,0,0,0,0,0,0,0,0,0,0,0,0,0],"sum_hessian":[7.1008356E2,3.5076443E2,3.5931915E2,1.1467213E2,2.360923E2,4.7613968E1,3.1170517E2,5.137812E1,6.329401E1,5.1768417E1,1.8432388E2,3.9924515E1,7.6894507E0,1.8860634E2,1.2309885E2,4.6596123E1,4.7819977E0,1.7858225E1,4.5435787E1,4.352581E1,8.242605E0,1.2714593E2,5.7177948E1,2.2075756E1,1.7848759E1,2.6929348E0,4.996516E0,1.8263847E2,5.9678535E0,3.4558674E1,8.854017E1,2.964148E1,1.6954641E1,1.3149455E0,3.467052E0,2.2063782E0,1.5651846E1,4.352868E1,1.9071084E0,1.0963357E1,3.2562454E1,2.4992943E0,5.743311E0,1.17564964E2,9.580963E0,5.504059E1,2.1373596E0,1.8709024E1,3.3667324E0,1.648746E1,1.3613007E0,3.6865504E0,1.3099657E0,1.3510301E2,4.753547E1,4.7939095E0,1.1739439E0,2.3771719E1,1.0786956E1,7.4322495E1,1.4217674E1],"tree_param":{"num_deleted":"0","num_feature":"37","num_nodes":"61","size_leaf_vector":"1"}},{"base_weights":[1.8348334E-2,-6.472288E-2,9.760688E-2,7.027006E-2,-1.659356E-1,2.3110776E-1,1.1427733E-2,-9.204675E-2,3.3264092E-1,-5.1104355E-1,-4.9276363E-2,-7.054404E-1,3.089308E-1,4.3112075E-1,-3.7958063E-2,2.3603538E-1,-2.5063682E-1,3.1042473E-2,5.85312E-1,-3.3094117E-1,-9.5299363E-1,1.8626331E-1,-1.5236516E-1,-1.4196455E-1,-1.0548562E0,7.907696E-2,5.0177944E-1,9.209603E-1,1.8987523E-1,-2.9251817E-1,6.495553E-2,-6.636012E-2,3.5973333E-2,-3.836042E-2,1.8619876E-2,-3.5092294E-2,3.2676652E-2,5.7977494E-2,-5.36593E-2,-6.6813216E-2,-6.1049513E-3,2.0377256E-2,-9.2942625E-2,-1.4535148E-2,3.8698915E-2,-2.6842799E-2,8.801845E-3,-5.3095486E-2,4.7096666E-2,-1.107408E-1,5.0906856E-3,1.5069451E-2,-6.631781E-2,2.4341213E-2,6.857021E-2,9.826532E-2,-1.0453564E-2,-1.7028417E-2,6.346702E-2,-4.011327E-2,2.6583884E-2,5.046234E-2,-4.157646E-3],"categories":[],"categories_nodes":[],"categories_segments":[],"categories_sizes":[],"default_left":[0,0,0,0,0,0,0,0,0,0,0,0,0,0,0,0,0,0,0,0,0,0,0,0,0,0,0,0,0,0,0,0,0,0,0,0,0,0,0,0,0,0,0,0,0,0,0,0,0,0,0,0,0,0,0,0,0,0,0,0,0,0,0],"id":26,"left_children":[1,3,5,7,9,11,13,15,17,19,21,23,25,27,29,31,33,35,37,39,41,43,45,47,49,51,53,55,57,59,61,-1,-1,-1,-1,-1,-1,-1,-1,-1,-1,-1,-1,-1,-1,-1,-1,-1,-1,-1,-1,-1,-1,-1,-1,-1,-1,-1,-1,-1,-1,-1,-1],"loss_changes":[4.711056E0,4.7867417E0,4.2089944E0,6.438155E0,8.028156E0,1.0680958E1,4.6491346E0,4.936249E0,4.38053E0,3.6985703E0,3.685274E0,2.0786538E0,5.8663177E0,2.6155372E0,5.28217E0,7.443274E0,7.1560698E0,5.0309362E0,5.975997E0,4.732963E0,3.8434238E0,5.155531E0,5.098078E0,2.4826772E0,2.6046996E0,6.306514E0,4.811117E0,2.5951037E0,4.320093E0,7.739509E0,9.551975E0,0E0,0E0,0E0,0E0,0E0,0E0,0E0,0E0,0E0,0E0,0E0,0E0,0E0,0E0,0E0,0E0,0E0,0E0,0E0,0E0,0E0,0E0,0E0,0E0,0E0,0E0,0E0,0E0,0E0,0E0,0E0,0E0],"parents":[2147483647,0,0,1,1,2,2,3,3,4,4,5,5,6,6,7,7,8,8,9,9,10,10,11,11,12,12,13,13,14,14,15,15,16,16,17,17,18,18,19,19,20,20,21,21,22,22,23,23,24,24,25,25,26,26,27,27,28,28,29,29,30,30],"right_children":[2,4,6,8,10,12,14,16,18,20,22,24,26,28,30,32,34,36,38,40,42,44,46,48,50,52,54,56,58,60,62,-1,-1,-1,-1,-1,-1,-1,-1,-1,-1,-1,-1,-1,-1,-1,-1,-1,-1,-1,-1,-1,-1,-1,-1,-1,-1,-1,-1,-1,-1,-1,-1],"split_conditions":[1.778E-1,2.16E2,2E0,2.602E-2,3.13E2,1.39E-3,4E1,4.8E1,9.9E1,3.839E-2,-3.4329078E-1,7.604E-1,1.17E0,1.161247E-2,1.0057467E1,5.3E-1,1.206338E-1,6.301197E0,6.475E-2,2.567394E0,1.051E-2,-4.449163E-1,1.2343903E-1,6.8E-1,8.2845E2,3.504E-2,9.283843E-2,8.92E-3,2.304E-2,3E0,1.0995881E-1,-6.636012E-2,3.5973333E-2,-3.836042E-2,1.8619876E-2,-3.5092294E-2,3.2676652E-2,5.7977494E-2,-5.36593E-2,-6.6813216E-2,-6.1049513E-3,2.0377256E-2,-9.2942625E-2,-1.4535148E-2,3.8698915E-2,-2.6842799E-2,8.801845E-3,-5.3095486E-2,4.7096666E-2,-1.107408E-1,5.0906856E-3,1.5069451E-2,-6.631781E-2,2.4341213E-2,6.857021E-2,9.826532E-2,-1.0453564E-2,-1.7028417E-2,6.346702E-2,-4.011327E-2,2.6583884E-2,5.046234E-2,-4.157646E-3],"split_indices":[14,0,13,8,0,6,0,3,0,8,31,1,9,25,18,9,36,24,6,24,6,31,25,1,4,6,33,6,6,15,35,0,0,0,0,0,0,0,0,0,0,0,0,0,0,0,0,0,0,0,0,0,0,0,0,0,0,0,0,0,0,0,0],"split_type":[0,0,0,0,0,0,0,0,0,0,0,0,0,0,0,0,0,0,0,0,0,0,0,0,0,0,0,0,0,0,0,0,0,0,0,0,0,0,0,0,0,0,0,0,0,0,0,0,0,0,0,0,0,0,0,0,0,0,0,0,0,0,0],"sum_hessian":[7.135602E2,3.484899E2,3.650703E2,1.4945685E2,1.9903305E2,1.4255516E2,2.2251515E2,9.2735085E1,5.672177E1,4.9428932E1,1.4960411E2,1.0318177E1,1.3223698E2,2.2613157E1,1.99902E2,3.0060106E1,6.2674976E1,2.6369238E1,3.0352533E1,3.6360294E1,1.3068638E1,4.5298416E1,1.04305695E2,4.487624E0,5.830553E0,6.0973488E1,7.126349E1,6.532219E0,1.6080938E1,5.7019657E1,1.4288232E2,4.5388155E0,2.552129E1,4.254108E1,2.01339E1,1.1676057E1,1.4693181E1,2.7701069E1,2.6514633E0,1.1435491E1,2.4924805E1,1.8938699E0,1.1174768E1,2.0424286E1,2.4874132E1,6.126124E1,4.3044456E1,2.6716383E0,1.8159863E0,4.3205132E0,1.51004E0,5.5130627E1,5.8428626E0,4.699716E1,2.4266333E1,4.924841E0,1.6073782E0,1.0032719E1,6.048219E0,4.288067E1,1.4138988E1,2.3717064E1,1.1916527E2],"tree_param":{"num_deleted":"0","num_feature":"37","num_nodes":"63","size_leaf_vector":"1"}},{"base_weights":[-4.8327874E-3,1.3103274E-3,-8.451736E-2,1.2471624E-1,-4.8631027E-2,2.1942702E-1,-6.735121E-2,-6.1587906E-1,-3.2143187E-2,9.023499E-2,4.4673577E-1,-9.190653E-1,1.8456873E-1,6.971204E-2,-9.237045E-1,4.2382833E-2,-1.3486889E-1,7.85541E-2,2.1130613E-3,4.9120624E-2,-1.2727584E-2,5.2204384E-3,-8.339865E-2,2.0812065E-3,9.945785E-2,-2.0198354E-2,-9.775694E-2,3.0145867E-2,-1.4352838E-3,2.5206523E-2,-1.4157239E-2],"categories":[],"categories_nodes":[],"categories_segments":[],"categories_sizes":[],"default_left":[0,0,0,0,0,0,0,0,0,0,0,0,0,0,0,0,0,0,0,0,0,0,0,0,0,0,0,0,0,0,0],"id":27,"left_children":[1,3,-1,5,7,9,11,13,15,17,19,21,23,-1,25,27,29,-1,-1,-1,-1,-1,-1,-1,-1,-1,-1,-1,-1,-1,-1],"loss_changes":[4.5574884E0,4.333447E0,0E0,3.6996918E0,4.661965E0,3.9507165E0,1.4688161E1,7.2528787E0,3.7378497E0,4.9767933E0,5.0629807E0,1.9647121E0,8.872714E0,0E0,2.1247387E0,5.722007E0,3.9426794E0,0E0,0E0,0E0,0E0,0E0,0E0,0E0,0E0,0E0,0E0,0E0,0E0,0E0,0E0],"parents":[2147483647,0,0,1,1,3,3,4,4,5,5,6,6,7,7,8,8,9,9,10,10,11,11,12,12,14,14,15,15,16,16],"right_children":[2,4,-1,6,8,10,12,14,16,18,20,22,24,-1,26,28,30,-1,-1,-1,-1,-1,-1,-1,-1,-1,-1,-1,-1,-1,-1],"split_conditions":[2.75E2,1.29E2,-8.451736E-2,6.192367E4,1.38E2,2.756986E4,8.094506E4,3.18E-3,4.8157E2,9.496E1,2.4E2,-2.337383E-1,2.44E0,6.971204E-2,1.33E2,1.031E-2,1.2E-1,7.85541E-2,2.1130613E-3,4.9120624E-2,-1.2727584E-2,5.2204384E-3,-8.339865E-2,2.0812065E-3,9.945785E-2,-2.0198354E-2,-9.775694E-2,3.0145867E-2,-1.4352838E-3,2.5206523E-2,-1.4157239E-2],"split_indices":[7,0,0,2,0,2,2,6,4,4,3,31,9,0,0,8,9,0,0,0,0,0,0,0,0,0,0,0,0,0,0],"split_type":[0,0,0,0,0,0,0,0,0,0,0,0,0,0,0,0,0,0,0,0,0,0,0,0,0,0,0,0,0,0,0],"sum_hessian":[7.042454E2,7.0114844E2,3.0970004E0,2.0156953E2,4.9957892E2,1.349042E2,6.666534E1,1.3083976E1,4.8649493E2,8.69071E1,4.7997097E1,1.4612799E1,5.205254E1,1.9296954E0,1.1154281E1,2.822871E2,2.0420782E2,4.8439484E0,8.206315E1,3.7601646E1,1.0395453E1,1.6805791E0,1.293222E1,4.6163284E1,5.889256E0,3.9996417E0,7.154639E0,4.2334507E1,2.399526E2,1.6916006E1,1.8729181E2],"tree_param":{"num_deleted":"0","num_feature":"37","num_nodes":"31","size_leaf_vector":"1"}},{"base_weights":[-4.6240172E-4,5.797381E-3,-8.7173474E-1,5.715889E-2,-9.380373E-2,-1.0052664E-2,-8.462388E-2,-1.2940602E-2,2.0434612E-1,-3.508343E-1,-2.7025735E-2,3.342267E-2,-5.261721E-1,3.136887E-2,4.8870167E-1,1.3703349E-1,-6.8370605E-1,1.7304797E-1,-1.6197427E-1,1.1133696E-2,-1.3700724E-2,-3.7818034E-3,-7.012855E-2,3.8535476E-2,-9.758695E-3,-1.0995342E-2,4.997654E-2,-5.8817018E-2,2.8942186E-2,-6.6049136E-2,4.132314E-2,-2.0696837E-2,2.7351461E-2,-1.4842967E-2,8.084367E-2],"categories":[],"categories_nodes":[],"categories_segments":[],"categories_sizes":[],"default_left":[0,0,0,0,0,0,0,0,0,0,0,0,0,0,0,0,0,0,0,0,0,0,0,0,0,0,0,0,0,0,0,0,0,0,0],"id":28,"left_children":[1,3,5,7,9,-1,-1,11,13,15,17,19,21,23,25,27,29,31,33,-1,-1,-1,-1,-1,-1,-1,-1,-1,-1,-1,-1,-1,-1,-1,-1],"loss_changes":[3.9008725E0,3.6385367E0,5.753343E-1,4.843695E0,4.144369E0,0E0,0E0,7.6027E0,7.432984E0,8.185207E0,5.2439375E0,6.3722067E0,4.4008613E0,6.634648E0,4.957468E0,4.3906903E0,5.499482E0,5.796479E0,3.3891582E0,0E0,0E0,0E0,0E0,0E0,0E0,0E0,0E0,0E0,0E0,0E0,0E0,0E0,0E0,0E0,0E0],"parents":[2147483647,0,0,1,1,2,2,3,3,4,4,7,7,8,8,9,9,10,10,11,11,12,12,13,13,14,14,15,15,16,16,17,17,18,18],"right_children":[2,4,6,8,10,-1,-1,12,14,16,18,20,22,24,26,28,30,32,34,-1,-1,-1,-1,-1,-1,-1,-1,-1,-1,-1,-1,-1,-1,-1,-1],"split_conditions":[7E0,9.1607146E-2,2E0,5E0,6.2E-1,-1.0052664E-2,-8.462388E-2,1.4376633E0,5E0,3E0,2E0,-1.3251723E-1,3.271281E4,7.4E-1,4.5E-1,-4.359246E-1,9.512936E-1,2E0,1.7E1,1.1133696E-2,-1.3700724E-2,-3.7818034E-3,-7.012855E-2,3.8535476E-2,-9.758695E-3,-1.0995342E-2,4.997654E-2,-5.8817018E-2,2.8942186E-2,-6.6049136E-2,4.132314E-2,-2.0696837E-2,2.7351461E-2,-1.4842967E-2,8.084367E-2],"split_indices":[13,33,30,12,9,0,0,32,7,12,13,31,2,9,9,31,32,12,12,0,0,0,0,0,0,0,0,0,0,0,0,0,0,0,0],"split_type":[0,0,0,0,0,0,0,0,0,0,0,0,0,0,0,0,0,0,0,0,0,0,0,0,0,0,0,0,0,0,0,0,0,0,0],"sum_hessian":[7.133081E2,7.0920605E2,4.1020484E0,4.6819638E2,2.4100967E2,1.1532218E0,2.9488263E0,3.1776804E2,1.5042834E2,4.882541E1,1.9218427E2,2.922979E2,2.5470142E1,9.422211E1,5.620624E1,2.0040993E1,2.8784414E1,7.7298996E1,1.1488526E2,1.9293721E2,9.936069E1,1.1241946E1,1.4228195E1,2.339141E1,7.0830696E1,1.0028094E1,4.6178146E1,3.640526E0,1.6400467E1,2.6020117E1,2.7642992E0,2.1581131E1,5.571787E1,1.13447205E2,1.4380585E0],"tree_param":{"num_deleted":"0","num_feature":"37","num_nodes":"35","size_leaf_vector":"1"}},{"base_weights":[-1.1747046E-2,-5.6861024E-3,-8.241636E-2,2.1446455E-2,-2.3080358E-1,7.937874E-2,-8.946689E-2,-4.5564774E-1,-6.632168E-2,9.4898766E-1,6.662059E-2,-1.0144517E0,-6.559043E-2,-5.6935585E-1,2.716978E-1,4.7630367E-1,-2.6362315E-1,2.7831E-3,1.0399897E-1,1.0145866E-2,-6.7837248E-3,2.1650394E-2,-1.10190615E-1,-8.506817E-3,3.3571474E-2,-6.550176E-2,-7.186268E-3,-3.730633E-2,6.844367E-2,6.0450215E-2,-5.7577595E-2,-9.478714E-3,-8.524798E-2],"categories":[],"categories_nodes":[],"categories_segments":[],"categories_sizes":[],"default_left":[0,0,0,0,0,0,0,0,0,0,0,0,0,0,0,0,0,0,0,0,0,0,0,0,0,0,0,0,0,0,0,0,0],"id":29,"left_children":[1,3,-1,5,7,9,11,13,15,17,19,21,23,25,27,29,31,-1,-1,-1,-1,-1,-1,-1,-1,-1,-1,-1,-1,-1,-1,-1,-1],"loss_changes":[4.3928194E0,4.337844E0,0E0,4.08079E0,2.794797E0,4.563156E0,4.748019E0,2.8096619E0,4.9738827E0,1.8652534E0,3.7667978E0,2.898954E0,4.267284E0,3.285428E0,2.5607734E0,4.6970005E0,3.8142858E0,0E0,0E0,0E0,0E0,0E0,0E0,0E0,0E0,0E0,0E0,0E0,0E0,0E0,0E0,0E0,0E0],"parents":[2147483647,0,0,1,1,3,3,4,4,5,5,6,6,7,7,8,8,9,9,10,10,11,11,12,12,13,13,14,14,15,15,16,16],"right_children":[2,4,-1,6,8,10,12,14,16,18,20,22,24,26,28,30,32,-1,-1,-1,-1,-1,-1,-1,-1,-1,-1,-1,-1,-1,-1,-1,-1],"split_conditions":[3.28E2,1.22986E3,-8.241636E-2,9.1607146E-2,1.523E-1,3.526E-1,8.4903E-4,7.13E2,1.976E-1,8.2E-1,3.122E-2,9.851852E-2,3.811E-1,1.6E-2,1.0986123E0,4E0,1.609438E0,2.7831E-3,1.0399897E-1,1.0145866E-2,-6.7837248E-3,2.1650394E-2,-1.10190615E-1,-8.506817E-3,3.3571474E-2,-6.550176E-2,-7.186268E-3,-3.730633E-2,6.844367E-2,6.0450215E-2,-5.7577595E-2,-9.478714E-3,-8.524798E-2],"split_indices":[7,4,0,34,14,1,25,0,14,9,8,36,14,6,22,7,22,0,0,0,0,0,0,0,0,0,0,0,0,0,0,0,0],"split_type":[0,0,0,0,0,0,0,0,0,0,0,0,0,0,0,0,0,0,0,0,0,0,0,0,0,0,0,0,0,0,0,0,0],"sum_hessian":[7.115887E2,7.083786E2,3.21005E0,6.329913E2,7.5387314E1,4.1599368E2,2.169976E2,3.110165E1,4.428566E1,4.9538116E0,4.110399E2,4.416411E0,2.1258119E2,2.708464E1,4.0170093E0,1.1431704E1,3.285396E1,1.6792411E0,3.2745705E0,2.942213E2,1.1681858E2,1.0286049E0,3.387806E0,1.9683401E2,1.5747175E1,1.7351938E1,9.732702E0,1.8631428E0,2.1538663E0,9.56587E0,1.865834E0,2.8791162E1,4.062794E0],"tree_param":{"num_deleted":"0","num_feature":"37","num_nodes":"33","size_leaf_vector":"1"}},{"base_weights":[2.7484622E-2,-9.600237E-2,1.0458554E-1,-8.769056E-1,-7.6990865E-2,1.3033976E-1,-6.115545E-1,-1.0684022E-1,-4.781578E-2,7.944392E-2,-1.44103E-1,1.0370393E-1,5.0457877E-1,-9.4018936E-2,-2.9416382E-1,4.8112605E-2,-5.5003617E-2,2.011931E-1,-5.641301E-1,-6.7785126E-1,-1.0011515E-1,1.1444763E-1,-8.355351E-1,9.4125706E-1,1.6845858E-1,3.9231822E-1,-5.431926E-1,4.3242997E-3,6.5584175E-2,-8.662201E-2,4.6153307E-2,-6.4186394E-2,3.819518E-2,7.0243315E-3,-1.720402E-2,5.4041627E-3,2.5963003E-2,8.427453E-3,-9.617589E-2,9.5578775E-2,1.2509739E-2,8.117608E-2,-1.2375908E-2,-1.75172E-2,6.338554E-2,-6.468017E-2,4.160955E-2],"categories":[],"categories_nodes":[],"categories_segments":[],"categories_sizes":[],"default_left":[0,0,0,0,0,0,0,0,0,0,0,0,0,0,0,0,0,0,0,0,0,0,0,0,0,0,0,0,0,0,0,0,0,0,0,0,0,0,0,0,0,0,0,0,0,0,0],"id":30,"left_children":[1,3,5,7,9,11,13,-1,15,17,19,21,23,-1,25,-1,-1,27,29,31,33,35,37,39,41,43,45,-1,-1,-1,-1,-1,-1,-1,-1,-1,-1,-1,-1,-1,-1,-1,-1,-1,-1,-1,-1],"loss_changes":[6.8041725E0,4.0123577E0,8.190976E0,2.3829002E0,2.8395276E0,4.187577E0,2.417069E0,0E0,1.796097E0,6.500578E0,4.366275E0,4.1152506E0,3.9516158E0,0E0,2.130094E0,0E0,0E0,6.2620893E0,8.454433E0,2.426044E0,3.812744E0,3.8669343E0,1.7223616E0,2.1929512E0,4.817273E0,1.0453339E0,2.8601413E0,0E0,0E0,0E0,0E0,0E0,0E0,0E0,0E0,0E0,0E0,0E0,0E0,0E0,0E0,0E0,0E0,0E0,0E0,0E0,0E0],"parents":[2147483647,0,0,1,1,2,2,3,3,4,4,5,5,6,6,8,8,9,9,10,10,11,11,12,12,14,14,17,17,18,18,19,19,20,20,21,21,22,22,23,23,24,24,25,25,26,26],"right_children":[2,4,6,8,10,12,14,-1,16,18,20,22,24,-1,26,-1,-1,28,30,32,34,36,38,40,42,44,46,-1,-1,-1,-1,-1,-1,-1,-1,-1,-1,-1,-1,-1,-1,-1,-1,-1,-1,-1,-1],"split_conditions":[1.464E-1,2.72E-3,1.8965795E0,9E-1,4.8E1,5.670726E-1,2E0,-1.0684022E-1,6.06948E-3,1.3855737E-1,-4.592748E-1,6.6666664E1,2E0,-9.4018936E-2,2.80598E-1,4.8112605E-2,-5.5003617E-2,4.363E-2,3.3E2,9.465E-1,2.15E2,7E0,4.982E-1,1.77E3,3.6E1,4E0,5.405E-2,4.3242997E-3,6.5584175E-2,-8.662201E-2,4.6153307E-2,-6.4186394E-2,3.819518E-2,7.0243315E-3,-1.720402E-2,5.4041627E-3,2.5963003E-2,8.427453E-3,-9.617589E-2,9.5578775E-2,1.2509739E-2,8.117608E-2,-1.2375908E-2,-1.75172E-2,6.338554E-2,-6.468017E-2,4.160955E-2],"split_indices":[14,8,31,9,3,25,12,0,25,36,31,24,13,0,25,0,0,8,0,1,0,12,1,3,7,12,8,0,0,0,0,0,0,0,0,0,0,0,0,0,0,0,0,0,0,0,0],"split_type":[0,0,0,0,0,0,0,0,0,0,0,0,0,0,0,0,0,0,0,0,0,0,0,0,0,0,0,0,0,0,0,0,0,0,0,0,0,0,0,0,0,0,0,0,0,0,0],"sum_hessian":[7.125972E2,2.7381012E2,4.387871E2,5.4351406E0,2.6837497E2,4.243446E2,1.444251E1,3.1061947E0,2.3289459E0,8.051504E1,1.8785995E2,3.973416E2,2.7002998E1,4.2290163E0,1.0213493E1,1.1856269E0,1.1433189E0,6.828457E1,1.2230465E1,1.3206191E1,1.7465376E2,3.9371613E2,3.6254618E0,1.0961611E1,1.6041388E1,2.5656195E0,7.647874E0,5.604206E1,1.2242512E1,8.443618E0,3.786847E0,1.2197472E1,1.0087194E0,6.637176E1,1.08282E2,3.2294986E2,7.076629E1,1.2165154E0,2.4089465E0,7.891034E0,3.070577E0,3.841586E0,1.2199801E1,1.1938152E0,1.3718042E0,6.312472E0,1.335402E0],"tree_param":{"num_deleted":"0","num_feature":"37","num_nodes":"47","size_leaf_vector":"1"}},{"base_weights":[-1.0658242E-2,-2.313366E-3,-7.155654E-1,6.870873E-3,-6.209505E-1,-9.02954E-1,1.4405159E-2,-4.9774036E-1,1.6518582E-2,-4.6051074E-2,-8.492301E-1,-8.415564E-2,-1.13340765E-2,-9.806269E-1,1.0326235E-2,6.1843354E-2,-1.0608203E-1,5.4742116E-2,-6.1690416E-2,-8.717405E-2,-3.668683E-3,9.391603E-3,-9.635729E-2,3.275351E-2,-6.827761E-2,3.093112E-3,4.7824576E-2,3.4706003E-4,-2.5527647E-2],"categories":[],"categories_nodes":[],"categories_segments":[],"categories_sizes":[],"default_left":[0,0,0,0,0,0,0,0,0,0,0,0,0,0,0,0,0,0,0,0,0,0,0,0,0,0,0,0,0],"id":31,"left_children":[1,3,5,7,9,11,-1,13,15,17,19,-1,-1,21,23,25,27,-1,-1,-1,-1,-1,-1,-1,-1,-1,-1,-1,-1],"loss_changes":[4.199292E0,4.020143E0,1.5643549E0,3.4036808E0,1.3192883E0,6.5325546E-1,0E0,3.2281578E0,3.8148897E0,2.645423E0,1.3700876E0,0E0,0E0,1.7968335E0,2.8940113E0,6.200881E0,4.360971E0,0E0,0E0,0E0,0E0,0E0,0E0,0E0,0E0,0E0,0E0,0E0,0E0],"parents":[2147483647,0,0,1,1,2,2,3,3,4,4,5,5,7,7,8,8,9,9,10,10,13,13,14,14,15,15,16,16],"right_children":[2,4,6,8,10,12,-1,14,16,18,20,-1,-1,22,24,26,28,-1,-1,-1,-1,-1,-1,-1,-1,-1,-1,-1,-1],"split_conditions":[8.0110035E0,3.664E3,3.195E-1,5.7E-4,1.5E0,1.3886544E-1,1.4405159E-2,1.18E0,1.4814815E1,1.455E-1,4E0,-8.415564E-2,-1.13340765E-2,-1.1305963E0,7.252883E4,5.2497E-1,8.012E-1,5.4742116E-2,-6.1690416E-2,-8.717405E-2,-3.668683E-3,9.391603E-3,-9.635729E-2,3.275351E-2,-6.827761E-2,3.093112E-3,4.7824576E-2,3.4706003E-4,-2.5527647E-2],"split_indices":[20,3,14,6,30,35,0,9,24,14,13,0,0,32,2,25,1,0,0,0,0,0,0,0,0,0,0,0,0],"split_type":[0,0,0,0,0,0,0,0,0,0,0,0,0,0,0,0,0,0,0,0,0,0,0,0,0,0,0,0,0],"sum_hessian":[7.131598E2,7.0580756E2,7.352253E0,6.964569E2,9.350651E0,6.073372E0,1.2788814E0,1.2116698E1,6.843402E2,2.9991984E0,6.3514524E0,4.7599707E0,1.313401E0,5.7354174E0,6.381281E0,4.9999164E2,1.8434859E2,1.5222267E0,1.4769719E0,4.614096E0,1.7373563E0,1.0517414E0,4.683676E0,4.724489E0,1.6567919E0,4.8029202E2,1.9699608E1,1.22057175E2,6.2291405E1],"tree_param":{"num_deleted":"0","num_feature":"37","num_nodes":"29","size_leaf_vector":"1"}},{"base_weights":[5.346129E-5,8.280049E-3,-5.297461E-1,-1.27663035E-2,3.4518456E-1,6.775149E-2,-7.7221197E-1,1.9677138E-2,-1.5953325E-1,5.1794328E-2,5.9134424E-1,5.875285E-2,-5.904839E-2,-8.992787E-1,1.3538311E-3,5.183332E-3,6.370993E-1,2.6801487E-2,-5.1766276E-1,6.0341173E-1,-3.2662627E-1,7.4878013E-1,-3.194852E-1,-8.436709E-2,-1.2881889E-2,-3.6777493E-3,1.29948575E-2,-1.2662464E-3,8.172332E-2,-5.494086E-2,9.568297E-3,5.3225458E-2,-5.3112853E-2,-3.1159203E-3,9.384477E-2,-5.927533E-2,2.521141E-2,6.681466E-2,-2.7986057E-2,-6.449922E-2,3.629905E-2],"categories":[],"categories_nodes":[],"categories_segments":[],"categories_sizes":[],"default_left":[0,0,0,0,0,0,0,0,0,0,0,0,0,0,0,0,0,0,0,0,0,0,0,0,0,0,0,0,0,0,0,0,0,0,0,0,0,0,0,0,0],"id":32,"left_children":[1,3,5,7,9,11,13,15,17,19,21,-1,-1,23,-1,25,27,29,31,33,35,37,39,-1,-1,-1,-1,-1,-1,-1,-1,-1,-1,-1,-1,-1,-1,-1,-1,-1,-1],"loss_changes":[3.0968177E0,4.9654408E0,1.626256E0,3.1433775E0,2.9429598E0,2.7207856E0,7.982311E-1,4.837891E0,7.98839E0,4.347048E0,3.4359632E0,0E0,0E0,6.03477E-1,0E0,4.267621E0,3.1287422E0,5.350229E0,7.525813E0,3.1341913E0,3.5413074E0,2.1248026E0,1.8661665E0,0E0,0E0,0E0,0E0,0E0,0E0,0E0,0E0,0E0,0E0,0E0,0E0,0E0,0E0,0E0,0E0,0E0,0E0],"parents":[2147483647,0,0,1,1,2,2,3,3,4,4,5,5,6,6,7,7,8,8,9,9,10,10,13,13,15,15,16,16,17,17,18,18,19,19,20,20,21,21,22,22],"right_children":[2,4,6,8,10,12,14,16,18,20,22,-1,-1,24,-1,26,28,30,32,34,36,38,40,-1,-1,-1,-1,-1,-1,-1,-1,-1,-1,-1,-1,-1,-1,-1,-1,-1,-1],"split_conditions":[1.22133E2,5.8290696E-1,1.5E0,1.821061E1,7.352E-1,1.455E-1,2.633E-2,2.82E0,8.012E-1,5.546E-1,4E0,5.875285E-2,-5.904839E-2,4E0,1.3538311E-3,4.86E2,3E0,-3.5465035E-1,1.5581E2,3E0,8.404194E-1,7.577199E-2,1.976E-1,-8.436709E-2,-1.2881889E-2,-3.6777493E-3,1.29948575E-2,-1.2662464E-3,8.172332E-2,-5.494086E-2,9.568297E-3,5.3225458E-2,-5.3112853E-2,-3.1159203E-3,9.384477E-2,-5.927533E-2,2.521141E-2,6.681466E-2,-2.7986057E-2,-6.449922E-2,3.629905E-2],"split_indices":[5,25,30,24,1,14,6,9,1,1,13,0,0,13,0,0,12,32,4,12,31,26,14,0,0,0,0,0,0,0,0,0,0,0,0,0,0,0,0,0,0],"split_type":[0,0,0,0,0,0,0,0,0,0,0,0,0,0,0,0,0,0,0,0,0,0,0,0,0,0,0,0,0,0,0,0,0,0,0,0,0,0,0,0,0],"sum_hessian":[7.085267E2,6.986624E2,9.864273E0,6.5848883E2,4.017355E1,3.0554464E0,6.8088264E0,5.3998816E2,1.18500694E2,1.8880665E1,2.1292883E1,1.7206588E0,1.3347876E0,5.744302E0,1.0645248E0,5.285881E2,1.1400057E1,7.8554146E1,3.994655E1,7.440386E0,1.144028E1,1.8306532E1,2.9863515E0,4.3918753E0,1.3524264E0,3.9937616E2,1.2921194E2,4.5801196E0,6.819937E0,8.303988E0,7.025016E1,4.004598E0,3.5941948E1,3.9348724E0,3.5055132E0,6.8582053E0,4.5820746E0,1.7194035E1,1.112497E0,1.8064593E0,1.1798922E0],"tree_param":{"num_deleted":"0","num_feature":"37","num_nodes":"41","size_leaf_vector":"1"}},{"base_weights":[-1.5212341E-2,-5.0948733E-3,-5.779928E-1,-1.8195858E-2,4.380631E-1,-9.7055334E-1,-4.2644553E-2,-1.0423994E-2,-7.1623206E-1,-7.837063E-3,7.918726E-1,-9.008814E-2,-6.566407E-3,5.2530944E-2,-3.9294282E-1,-2.3592714E-2,4.3609303E-1,2.1383406E-1,-1.1956635E0,8.302638E-2,-4.496715E-1,-1.3303712E-2,1.0950121E0,-6.06604E-2,3.7829712E-2,-6.051022E-4,-2.8571492E-2,6.000119E-2,-1.2859021E-2,-3.547029E-2,5.7530355E-2,-1.2152649E-1,-9.127909E-3,-7.321243E-2,8.288827E-2,6.3489705E-2,-6.6347495E-2,2.1952507E-3,9.9437185E-2],"categories":[],"categories_nodes":[],"categories_segments":[],"categories_sizes":[],"default_left":[0,0,0,0,0,0,0,0,0,0,0,0,0,0,0,0,0,0,0,0,0,0,0,0,0,0,0,0,0,0,0,0,0,0,0,0,0,0,0],"id":33,"left_children":[1,3,5,7,9,11,13,15,17,19,21,-1,-1,-1,23,25,27,29,31,-1,33,35,37,-1,-1,-1,-1,-1,-1,-1,-1,-1,-1,-1,-1,-1,-1,-1,-1],"loss_changes":[4.10405E0,4.1275754E0,2.633758E0,3.736638E0,3.2268445E0,9.161701E-1,1.833391E0,4.029704E0,3.6377146E0,5.0969396E0,2.7952237E0,0E0,0E0,0E0,1.9116814E0,3.5523446E0,3.7990777E0,1.4572982E0,1.6304116E0,0E0,6.3031616E0,3.3605754E0,1.2750473E0,0E0,0E0,0E0,0E0,0E0,0E0,0E0,0E0,0E0,0E0,0E0,0E0,0E0,0E0,0E0,0E0],"parents":[2147483647,0,0,1,1,2,2,3,3,4,4,5,5,6,6,7,7,8,8,9,9,10,10,14,14,15,15,16,16,17,17,18,18,20,20,21,21,22,22],"right_children":[2,4,6,8,10,12,14,16,18,20,22,-1,-1,-1,24,26,28,30,32,-1,34,36,38,-1,-1,-1,-1,-1,-1,-1,-1,-1,-1,-1,-1,-1,-1,-1,